0.067856, -0.033955, 0.054687, -0.024319, 0.022759, -0.068548, 0.004039, -0.030268, -0.018081, 0.036604, -0.018203, -0.042933, 0.039484, -0.005985, -0.042067, 0.050114, -0.001718, -0.070323, 0.068345, 0.041606, 0.026839, 0.071302, 0.080912, -0.040365, 0.006309, 0.023189, 0.027641, 0.017051, -0.037681, 0.075725,
0.054132, -0.040892, 0.022997, -0.010594, -0.036226, 0.005630, -0.070782, -0.067657, 0.008066, -0.063428, 0.001848, 0.026378, -0.029016, -0.072439, -0.044314, 0.063610, 0.024299, 0.002166, 0.068083, -0.007872, -0.045960, -0.046184, 0.060590, -0.024707, 0.029333, 0.058732, -0.036915, 0.068429, 0.005066, -0.040925,
-0.079436, 0.037803, 0.068712, 0.071869, 0.074934, 0.064613, -0.076951, -0.022397, 0.011934, 0.038067, -0.005041, -0.071484, -0.068220, -0.081749, 0.074876, -0.065303, -0.065927, 0.064162, 0.054142, -0.078950, 0.023075, 0.052369, -0.077472, 0.008582, 0.032905, 0.056144, -0.049453, 0.015147, 0.030687, -0.049383,
0.039528, 0.023507, -0.075476, -0.071448, 0.007328, 0.045762, 0.019584, 0.015421, -0.040307, 0.012022, -0.012279, -0.056430, 0.003407, 0.083670, -0.078972, -0.073336, 0.062249, 0.072718, -0.077169, -0.068825, 0.017218, 0.026047, -0.049117, -0.040503, 0.057949, -0.015069, 0.034760, -0.068812, 0.015399, 0.070075,
0.030684, 0.038936, 0.013149, 0.075401, 0.036216, 0.020988, -0.064846, -0.051722, 0.046459, -0.084276, 0.019690, 0.067640, 0.023398, -0.000957, 0.072009, 0.035154, 0.075371, 0.061943, 0.072294, 0.015165, 0.009018, 0.061855, -0.056706, 0.073194, -0.036149, 0.030806, -0.044864, 0.000938, -0.026774, -0.082419,
-0.047313, 0.056453, 0.077972, 0.019137, 0.073483, -0.045031, -0.015652, -0.074706, 0.016624, -0.044304, 0.060351, 0.018451, 0.052151, -0.018468, -0.044717, -0.068551, -0.049992, 0.076511, 0.080405, -0.044428, 0.016976, -0.078628, -0.010486, 0.050944, -0.061491, 0.055800, 0.058676, -0.026153, 0.083163, 0.050260,
-0.019154, 0.021709, 0.078465, 0.033644, -0.000414, -0.062472, -0.000041, -0.000823, 0.026422, 0.078724, 0.053524, 0.083614, -0.027309, 0.000141, -0.043159, 0.057654, 0.041676, 0.085776, -0.033883, -0.048407, 0.020876, -0.081139, -0.013680, 0.028402, -0.028962, 0.044543, -0.025453, 0.014274, -0.046618, -0.005202,
0.035818, 0.038787, 0.085385, -0.043723, -0.007921, -0.027560, 0.007658, -0.011049, -0.079703, -0.080645, 0.070576, -0.073357, 0.070356, -0.043137, -0.007218, 0.034965, -0.009315, 0.083098, 0.059640, 0.030299, 0.014552, 0.031479, -0.065852, 0.084493, 0.011193, -0.002315, 0.039222, 0.000151, -0.069264, 0.068674,
0.072312, -0.036830, -0.035259, 0.013239, -0.045540, 0.039705, 0.040103, 0.008803, 0.042745, -0.040434, -0.070750, 0.029364, 0.044399, -0.028905, -0.007313, -0.044112, 0.037268, 0.056020, 0.067363, 0.058402, -0.031582, 0.069874, -0.073215, -0.036947, 0.001788, -0.060445, 0.017172, -0.083202, 0.005235, -0.025251,
-0.047777, 0.084662, -0.040658, -0.072424, -0.047305, 0.031690, -0.040702, -0.061745, -0.016201, -0.013622, -0.030290, 0.080281, -0.080121, 0.073106, -0.071337, 0.002913, 0.037570, 0.032088, 0.052129, 0.044421, -0.040703, -0.061470, 0.056863, 0.080902, -0.072078, -0.024293, -0.033522, -0.051307, -0.027315, 0.037225,
-0.064827, 0.041656, 0.035738, -0.011902, 0.037102, -0.003775, 0.001466, -0.054183, 0.056042, 0.054655, 0.023464, 0.009408, 0.058601, -0.064570, 0.036164, 0.029287, -0.028048, 0.068490, 0.083705, -0.045266, 0.049084, 0.041240, 0.030530, 0.026316, -0.074089, -0.025605, 0.009707, 0.027123, -0.032220, 0.085227,
0.035965, 0.057618, -0.075273, 0.077891, 0.008555, -0.038189, -0.049655, -0.076473, -0.084156, -0.013055, -0.052021, -0.053712, -0.020853, -0.009868, -0.050211, 0.061051, 0.037033, 0.033455, -0.047087, -0.014805, 0.009848, 0.075320, 0.072740, 0.019698, 0.023019, 0.078438, -0.000138, -0.059080, -0.044716, 0.055809,
0.021970, -0.144083, 0.039736, 0.048697, 0.019272, 0.218952, -0.247974, 0.211226, 0.014328, 0.241944, -0.026406, 0.038441, 0.030271, -0.052805, 0.015371, -0.196706, 0.036934, 0.025010, 0.172866, 0.020190, -0.038349, 0.291858, -0.141575, 0.221129, -0.137270, 0.008534, 0.189363, -0.074726, -0.043395, -0.077638,
-0.002884, -0.246463, 0.067522, 0.116976, -0.297658, -0.014510, -0.278860, 0.282767, -0.115751, 0.478667, -0.029184, -0.064858, 0.290055, 0.097980, 0.231835, -0.151637, -0.083163, -0.062446, 0.237621, -0.133144, -0.048934, 0.327115, -0.499395, 0.235520, -0.121928, -0.041167, 0.183196, -0.011524, -0.039072, -0.128223,
-0.055168, -0.034452, 0.046856, 0.226566, -0.416965, -0.311088, -0.063881, 0.015255, 0.082419, 0.308912, 0.098233, -0.024569, 0.322837, 0.151523, 0.163021, 0.048399, -0.044582, -0.091841, -0.031659, 0.003920, -0.056213, 0.169898, -0.366505, 0.015500, 0.228025, -0.013927, 0.032475, -0.036521, 0.036484, 0.029830,
0.007672, 0.056550, 0.013016, 0.111036, -0.049354, -0.140853, -0.034665, 0.008804, -0.057958, 0.063487, 0.010994, 0.030156, 0.019333, -0.025754, 0.074228, 0.031636, 0.054323, -0.038628, 0.052527, -0.014056, 0.014591, 0.008477, -0.087472, -0.064603, -0.000918, -0.004393, 0.001006, -0.070568, -0.018791, 0.027909,
-0.028219, -0.075533, 0.017161, -0.008305, 0.001412, -0.003314, 0.012559, 0.042229, 0.057515, -0.001609, 0.012570, 0.030528, -0.005988, 0.023675, -0.067695, 0.009936, 0.056755, -0.021369, 0.063274, -0.028042, -0.038646, -0.050541, 0.082941, -0.046786, 0.073649, 0.037097, -0.067867, 0.034591, -0.000038, -0.081981,
0.033714, -0.057104, -0.081426, -0.030171, -0.072120, -0.068736, 0.031397, 0.071556, -0.070119, -0.022670, -0.012734, -0.057914, -0.039479, -0.034606, 0.002073, 0.046995, -0.019236, 0.037217, -0.029657, -0.009387, -0.057464, -0.009810, -0.029895, -0.066977, 0.085525, -0.005518, -0.017763, -0.065558, 0.058007, -0.003925,
-0.019392, -0.014768, -0.029678, -0.001410, -0.068071, 0.023336, 0.075514, 0.052165, 0.053836, -0.000552, 0.034295, 0.042757, 0.015434, 0.030204, -0.009721, -0.038568, 0.026598, 0.047578, 0.049921, 0.029693, 0.083545, 0.016037, 0.074002, 0.079628, -0.053061, -0.060931, 0.057177, 0.041005, 0.000760, -0.073991,
0.043653, -0.047466, 0.001175, -0.017521, -0.006667, 0.016892, 0.030389, -0.072415, 0.000478, 0.013564, 0.085510, 0.027562, -0.050033, -0.001434, 0.011121, 0.029691, 0.023019, 0.027934, 0.082766, 0.072078, 0.071721, -0.018427, -0.077502, -0.033429, -0.026042, 0.068940, -0.047545, -0.002276, -0.015584, 0.026897,
0.067275, 0.009260, 0.020245, -0.020945, 0.053022, -0.055085, 0.035120, 0.084478, -0.085122, -0.070334, 0.033914, -0.045902, -0.053729, -0.009894, 0.001192, -0.005971, 0.013727, 0.075425, 0.057217, -0.058630, 0.001691, -0.072239, 0.069623, 0.025013, -0.027817, 0.040575, -0.002117, 0.060113, -0.026961, -0.032835,
-0.023181, -0.042349, 0.071707, 0.080694, 0.063732, 0.016232, -0.075666, -0.072229, 0.059812, -0.075947, 0.043194, -0.042655, 0.028083, -0.053010, -0.012749, 0.006763, -0.034235, 0.074373, -0.061950, 0.072801, -0.040001, 0.016538, -0.067971, 0.066883, -0.068941, 0.009556, 0.048734, -0.057821, 0.021008, -0.017167,
-0.013790, -0.037891, -0.035158, 0.074294, -0.028655, 0.041797, -0.006861, -0.034373, 0.042826, 0.025624, -0.013910, 0.039326, 0.042200, 0.051991, 0.004890, -0.013625, -0.068390, 0.076059, -0.039931, -0.004699, -0.071408, 0.025442, -0.040227, -0.081736, 0.023454, -0.035440, 0.061107, -0.065711, 0.069984, 0.077764,
0.060366, 0.047477, 0.038896, -0.025159, 0.061900, -0.014356, 0.036395, 0.070116, 0.085002, -0.027124, 0.020574, -0.064871, -0.056579, 0.043907, 0.012827, 0.073964, 0.058639, 0.056169, -0.006164, 0.016860, -0.018950, -0.004334, 0.026438, 0.078705, -0.017716, 0.027010, 0.019243, 0.026472, -0.062572, 0.027487,
-0.058999, 0.053414, 0.082233, -0.049496, 0.039853, -0.022804, 0.070196, -0.069147, -0.071531, 0.006054, -0.034543, -0.077910, 0.044357, 0.058819, -0.041074, 0.033388, -0.019508, 0.072592, 0.082895, -0.084253, 0.070128, -0.010755, 0.022382, 0.075062, 0.003183, 0.076351, 0.081595, -0.012040, 0.024158, 0.015812,
-0.072554, 0.049618, 0.038866, -0.038258, -0.044034, -0.000697, 0.012658, -0.085617, -0.014145, 0.021052, 0.075111, -0.053914, 0.062695, -0.021557, 0.011250, -0.054593, -0.051726, -0.070092, -0.053183, 0.015048, -0.021603, -0.059160, -0.085788, 0.037516, -0.006337, -0.014282, 0.039395, 0.023447, -0.026293, 0.057409,
0.005085, 0.031345, -0.039174, 0.038592, -0.039693, 0.084662, -0.036178, -0.082379, -0.058777, 0.034386, 0.048770, 0.058522, 0.073341, -0.036127, -0.072050, 0.074206, -0.058081, -0.016065, 0.077428, 0.065866, -0.084185, 0.033101, 0.002393, -0.061922, -0.038848, -0.069632, -0.066746, -0.012295, 0.035072, -0.018592,
0.035249, -0.079374, -0.048973, -0.065282, 0.039518, -0.044173, -0.005666, 0.063696, -0.061199, 0.026770, -0.083403, 0.038435, -0.006599, -0.015488, -0.050965, 0.047470, 0.043904, 0.006527, 0.059745, -0.067159, -0.016579, -0.044111, -0.000212, -0.074743, -0.067814, -0.041193, -0.057976, 0.082085, 0.037741, -0.003396,
-0.023560, 0.050121, -0.018142, -0.050065, -0.071821, 0.037468, -0.002133, 0.002316, -0.035544, -0.031182, 0.014481, 0.032330, 0.035024, -0.035410, -0.043785, -0.000609, 0.014922, -0.017300, 0.063558, 0.038720, 0.057803, -0.069941, 0.003149, -0.029760, -0.022012, -0.067326, 0.036852, 0.024979, 0.049867, -0.067634,
0.029107, -0.039652, 0.073248, -0.027575, -0.063223, 0.013125, 0.032996, -0.044648, 0.074492, -0.032058, -0.078670, 0.054243, -0.005164, 0.041281, 0.062169, 0.072561, -0.043137, 0.050503, -0.050239, 0.066772, -0.049230, 0.005876, -0.073592, -0.052512, 0.005096, 0.028146, -0.061860, 0.002925, -0.054005, 0.027196,
-0.072756, 0.048460, 0.027655, -0.048946, -0.069033, -0.029450, 0.009214, -0.031540, -0.048308, -0.031406, 0.036080, 0.033025, 0.082365, -0.026760, 0.014434, 0.001611, 0.067685, 0.012301, 0.057620, 0.029481, 0.047642, -0.015764, -0.016683, 0.069993, -0.081474, -0.022697, 0.010504, -0.076668, 0.080671, 0.027310,
0.045732, 0.021591, -0.074750, -0.066909, 0.058429, 0.008492, -0.029115, -0.067236, 0.077187, -0.045131, 0.037571, -0.041412, 0.038717, 0.028520, 0.083431, -0.016236, -0.082670, -0.001839, -0.050395, -0.065999, -0.069309, 0.026195, 0.025589, -0.030905, -0.072362, -0.057791, 0.053303, 0.085409, -0.006650, 0.005406,
-0.031161, -0.070396, 0.049311, 0.018477, 0.025368, 0.084531, -0.111213, 0.054180, 0.017751, -0.007342, -0.045195, -0.055789, 0.065816, 0.015709, -0.070107, -0.025331, 0.037531, -0.042469, 0.121933, 0.069042, -0.063198, 0.014578, 0.015917, 0.047864, -0.007607, -0.000904, -0.040686, 0.014394, -0.017320, 0.011823,
0.020951, -0.073336, 0.097208, 0.012093, 0.012311, 0.140063, -0.173320, -0.040332, 0.026394, 0.186852, 0.038492, 0.049611, -0.065341, -0.103703, 0.052798, 0.015836, 0.003124, 0.085059, 0.036969, -0.067223, 0.013028, 0.129756, 0.042551, -0.015064, -0.108100, 0.088764, -0.026872, -0.058637, 0.049248, -0.074363,
-0.051723, -0.227714, 0.233720, 0.035809, 0.035024, 0.152070, -0.409602, 0.385407, -0.315853, 0.317974, -0.152556, -0.042465, -0.121445, -0.081548, 0.009160, -0.299108, 0.021630, 0.086567, 0.240482, -0.100783, -0.150688, 0.484419, -0.333491, 0.040491, -0.259613, -0.025190, 0.368403, -0.101243, -0.072478, -0.155944,
0.041231, -0.264821, 0.340355, 0.021393, -0.010787, 0.480591, -0.435086, 0.455491, -0.490910, 0.433740, -0.200151, 0.054446, -0.223718, -0.225892, -0.119203, -0.363593, -0.020147, 0.158318, 0.482471, -0.226615, -0.156224, 0.512052, -0.374716, 0.265168, -0.461472, 0.022691, 0.327717, -0.011528, 0.089036, -0.336724,
0.092284, -0.375475, 0.266823, 0.043002, -0.280498, 0.668306, -0.312894, 0.284570, -0.550756, 0.294847, -0.203803, 0.080674, 0.208619, 0.042355, -0.138161, -0.465097, 0.017702, 0.306288, 0.060200, -0.300287, -0.126467, 0.563847, 0.158166, -0.173611, -0.698972, -0.032342, 0.424797, 0.096351, 0.333336, -0.374748,
0.258292, -0.204916, 0.357235, -0.339383, -0.232302, 0.673923, -0.642651, 0.468625, -0.793020, 0.276929, -0.193449, 0.027349, 0.164538, -0.176519, -0.243393, -0.413126, -0.120675, 0.395783, 0.252526, -0.149938, -0.188855, 0.560789, 0.582493, -0.159135, -0.886424, 0.035907, 0.523234, 0.149191, 0.231838, -0.469214,
0.184471, -0.420780, 0.501141, -0.792620, -0.138031, 0.618151, -0.875017, 0.634335, -0.699086, 0.670473, -0.061789, 0.344343, -0.227577, -0.386239, -0.313939, -0.187461, 0.044052, 0.464318, 0.507293, -0.178850, -0.160137, 0.679418, -0.004713, 0.154592, -1.210887, 0.085979, 0.663397, 0.203586, 0.371522, -0.597146,
0.271174, -0.615612, 0.548544, -0.142097, 0.067230, 0.764873, -1.312257, 0.575385, -0.611817, 0.903349, -0.217188, -0.384667, -0.286756, 0.243924, 0.336641, -0.246888, 0.160947, 0.089821, 0.017813, -0.287692, -0.134193, 0.045006, 0.050341, -0.062167, -1.274899, 0.084756, 0.662628, 0.096301, 0.387071, -0.062962,
0.161291, -0.615418, 0.799829, -0.058000, 0.582150, 0.907048, -1.389877, 0.869087, -0.709002, 0.984298, -0.716067, -0.338661, -0.707301, 0.068908, 0.238969, -0.477085, -0.247308, 0.184948, 0.286421, -0.450711, -0.387341, 0.330454, 0.221156, 0.443693, -1.302873, -0.005415, 0.702756, 0.025124, 0.519477, -0.038977,
0.493442, -0.879640, 0.826008, -0.408772, -0.154485, 0.711897, -1.482110, 0.514072, -0.102011, 0.567689, -0.247830, -0.174261, -0.362470, 0.015888, 0.211363, -0.704268, 0.208079, 0.471946, 0.440416, -0.428167, -0.298841, 0.150666, 0.281904, 0.421971, -1.220650, 0.075203, 0.413997, 0.353584, 0.575406, 0.169611,
-0.501650, -0.763934, 0.503225, -0.213151, 0.463827, 0.288063, -0.217838, -0.353643, 0.295687, -0.265290, 0.206887, 0.126152, -0.458314, -0.108635, 0.518053, -0.259694, -0.394305, 0.377840, 0.049178, 0.265128, 0.202591, -0.209015, 0.247754, 0.575368, 0.028735, 0.451445, -0.307805, 0.556895, -0.444263, 0.279980,
-0.604425, -0.789377, 1.120005, 0.631898, 0.600947, 0.284060, -0.968860, 0.295663, 0.012319, 0.408958, 0.206720, -0.595940, 0.097566, 0.510901, 0.795537, -0.364884, -0.511814, 0.540713, 0.049355, 0.396619, -0.310289, 0.867346, 0.030652, 0.232952, -0.148950, 0.295834, 0.616879, 0.325667, -0.016080, -0.060374,
-0.172294, -0.058912, 1.382375, 0.791213, -0.361728, 0.210374, -0.730488, 0.054149, 0.034311, 0.621601, 0.107697, -0.349709, 0.266434, 0.591110, 0.460430, -0.502064, 0.271975, 0.701398, 0.315094, 0.184382, -0.571550, 0.660115, 0.201087, -0.667644, -0.033925, 0.021024, 0.810609, -0.029993, 0.615340, 0.108195,
0.126652, -0.844215, 1.326314, 0.505811, -0.253243, 0.573114, -0.855600, 0.241983, -0.431165, 1.000299, -0.114119, -0.374595, -0.272391, 0.341812, 0.347649, -0.453707, 0.428976, 0.602147, 0.583136, -0.115335, -0.489335, 0.535999, 0.326251, -0.585136, -0.438187, 0.006811, 0.739579, -0.047978, 0.578636, 0.088577,
0.260558, -0.977710, 1.064194, -0.633872, -0.107042, 0.958045, -1.003604, 0.732661, -0.447781, 1.050916, -0.328975, 0.441391, -0.457870, -0.669247, -0.814363, -0.512822, 0.248488, 0.582236, 0.972295, -0.173049, -0.207073, 1.074555, -0.076069, 0.639075, -0.663498, 0.125374, 0.575504, 0.013001, 1.005536, -0.662617,
0.061471, -0.475883, 0.579308, -0.588727, 0.568154, 0.634620, -0.653800, 0.765262, -0.263037, 0.832191, -0.601949, -0.060610, -0.673323, -0.798111, 0.176090, -0.255912, -0.173393, 0.614863, 0.630664, -0.121415, -0.223564, 0.556781, -0.764462, 0.860765, -0.947649, -0.053908, 0.513464, 0.062688, 0.776640, -0.520651,
0.248609, -0.317560, 0.516501, -0.687548, 0.569995, 0.647935, -0.648897, 0.763126, -0.339750, 0.870774, -0.419594, -0.022605, -0.500669, -0.657084, 0.395425, -0.443094, -0.020844, 0.408923, 0.589060, -0.041720, -0.202191, 0.573538, -1.019155, 0.764780, -0.875417, -0.119783, 0.570902, -0.003098, 0.679634, -0.547493,
0.153535, -0.219577, 0.181787, -0.523857, 0.252696, 0.378773, -0.506263, 0.505783, -0.349655, 0.588628, -0.372874, 0.094961, -0.233648, -0.482386, 0.188197, -0.274367, -0.053332, 0.256873, 0.472675, 0.018222, -0.242706, 0.598067, -0.710275, 0.570477, -0.556178, 0.049270, 0.560937, 0.091043, 0.357724, -0.475632,
0.071202, -0.225091, 0.280755, -0.221509, 0.114007, 0.211010, -0.390073, 0.387200, -0.369173, 0.501698, -0.421806, -0.011694, -0.221860, -0.549532, 0.189630, -0.442414, -0.169382, 0.138738, 0.349471, -0.011466, -0.331815, 0.503773, -0.587162, 0.621245, -0.559234, -0.075001, 0.631511, -0.033938, -0.017253, -0.589978,
-0.033468, -0.221017, 0.172379, 0.146923, -0.008857, 0.163217, -0.286321, 0.357939, -0.224097, 0.408043, -0.364566, 0.062336, -0.117602, -0.548462, 0.145846, -0.372581, -0.106392, 0.059426, 0.238647, -0.068482, -0.296550, 0.333994, -0.416913, 0.462771, -0.465556, -0.203059, 0.356780, -0.053019, 0.062700, -0.450906,
-0.041544, 0.069783, -0.013974, -0.030936, 0.039759, 0.043608, 0.084886, -0.061622, -0.012012, 0.038400, -0.025897, -0.011375, 0.057557, -0.042292, 0.041053, -0.026926, -0.012147, 0.043167, -0.035069, -0.040532, -0.078986, 0.011980, -0.019874, 0.057944, 0.044879, -0.008093, 0.039136, 0.067012, 0.066474, -0.014798,
-0.054190, 0.021429, 0.036682, -0.021236, -0.028473, 0.002655, -0.001315, 0.006615, 0.036649, 0.070715, 0.031559, 0.082313, 0.039899, -0.055635, 0.069134, 0.041025, 0.044437, 0.063907, -0.071682, -0.014289, -0.032711, -0.034024, 0.000919, -0.078161, -0.062774, -0.063166, 0.004594, 0.084321, -0.031793, -0.051807,
0.016764, 0.022977, 0.010203, -0.082703, -0.022415, 0.069288, -0.049096, -0.032164, 0.002421, -0.024006, 0.018121, -0.000845, 0.083163, 0.033271, -0.016347, -0.007880, -0.059321, -0.018673, 0.072258, -0.010228, -0.081738, -0.010739, 0.024518, 0.057240, -0.019702, -0.042160, 0.022348, -0.055140, -0.006521, 0.017902,
0.032958, -0.049972, -0.038380, -0.065198, 0.064749, -0.007333, -0.079680, -0.034861, -0.054157, -0.067400, -0.057594, 0.068120, -0.070152, 0.071928, -0.009829, -0.052638, -0.030869, 0.054907, 0.077092, 0.008517, -0.007721, 0.007222, -0.010398, -0.050585, -0.085765, 0.074756, 0.011422, -0.059192, 0.082236, 0.013883,
0.058758, -0.082563, 0.003812, 0.034198, -0.080283, -0.075840, 0.079228, 0.072994, 0.063733, 0.054228, -0.069567, -0.025063, -0.079297, 0.001120, 0.000480, 0.069480, -0.000569, 0.040896, -0.077195, 0.058118, 0.072913, -0.046214, -0.072358, -0.081879, -0.018871, -0.029579, -0.001426, 0.055593, -0.085640, 0.015291,
0.003841, 0.006490, 0.012134, -0.070443, -0.021849, -0.019265, 0.026198, 0.021577, 0.058482, -0.000587, 0.083989, 0.013271, -0.035683, -0.046030, -0.049547, -0.036196, 0.073932, -0.048525, -0.048494, 0.022775, 0.001186, -0.073680, 0.065699, 0.024603, 0.038307, 0.061370, -0.068995, 0.078891, -0.027782, -0.011762,
0.089080, 0.005088, 0.305436, 0.065129, -0.043480, 0.167609, -0.310457, 0.124890, 0.071770, 0.126696, 0.031406, -0.026247, 0.003668, -0.048170, -0.050509, 0.058789, 0.059305, -0.003895, 0.219357, 0.018075, -0.061199, 0.227512, -0.149282, 0.296065, -0.064304, -0.083307, -0.053719, -0.017184, 0.094000, 0.028121,
-0.047662, -0.006661, 0.359049, -0.082469, 0.359028, 0.085051, -0.135424, 0.273166, -0.435158, 0.201945, -0.046794, -0.325907, -0.004673, 0.004576, 0.366194, -0.164650, -0.320699, 0.095996, 0.153969, -0.414932, -0.020871, 0.253471, 0.337532, -0.172374, -0.492611, -0.260181, 0.485170, -0.258514, 0.464119, -0.080132,
0.071903, -0.203000, 0.220736, -0.332812, 0.388778, 0.234591, -0.231181, 0.334983, -0.430054, 0.295153, -0.224241, -0.250287, -0.100744, -0.186098, 0.450356, -0.126501, 0.025865, 0.253719, 0.468295, -0.185440, -0.090264, 0.182701, 0.046003, 0.184020, -0.482131, -0.034866, 0.381512, -0.193968, 0.481501, -0.091853,
0.176221, -0.236572, 0.364043, -0.286281, 0.204676, 0.322639, -0.541633, 0.467045, -0.208157, 0.142751, 0.074097, 0.346008, 0.064974, -0.251399, -0.012069, -0.249879, -0.019345, 0.253065, 0.340821, -0.185955, 0.039132, 0.443672, -0.153920, 0.133496, -0.509696, 0.315391, 0.131984, 0.045250, 0.232775, -0.109738,
-0.154230, -0.418547, 0.667924, -0.439819, 0.217454, 0.535271, -0.910005, 0.492603, -0.536353, 0.540967, 0.261275, 0.501275, 0.345567, -0.405981, -0.058199, -0.835105, -0.043606, 0.360718, 0.514310, 0.240807, -0.315067, 0.729099, -0.567711, 0.111128, -0.725153, 0.323740, 0.306812, 0.187591, 0.276684, -0.239479,
0.244004, -0.609510, 0.878747, -0.481761, 0.654076, 0.612729, -0.997742, 0.742764, -0.450290, 0.654708, 0.145722, -0.065242, 0.023598, 0.184596, 0.252496, -1.192085, 0.204785, 0.102627, 0.517214, -0.301554, -0.542171, 0.545505, -0.807892, -0.209584, -0.959864, 0.381989, 0.479112, 0.368299, 0.386316, -0.331626,
0.751536, -0.699363, 0.550269, -0.167267, 0.032075, 0.211314, -1.067548, 0.363207, -0.906539, 0.509716, 0.320171, 0.658764, 0.185638, -0.099252, -0.142397, -1.066781, 0.549658, 0.753074, 0.596712, -0.319180, -0.774659, 1.116533, -0.864262, -0.384128, -0.805948, 0.427588, 0.729162, 0.386259, 0.514547, -0.902202,
0.995226, -0.783951, -0.300390, 0.239378, -0.021702, -0.222440, -0.610611, -0.274193, -0.648498, 0.693545, 0.399206, 0.856638, 0.124722, -0.108759, -0.877897, -1.084784, 0.838256, 0.733184, 0.416190, 0.231963, -0.954369, 1.285205, -0.985456, -0.733520, -0.169995, 0.445405, 0.860414, 0.404540, 0.670960, -1.293094,
0.676640, -0.959341, -0.103802, 0.193367, 0.511733, 0.306850, -0.995356, 0.008499, -0.639834, 0.662699, 0.231961, 1.035363, -0.248953, -0.154050, -0.378427, -1.153708, 0.615165, 0.700610, 0.598125, 0.336138, -0.784621, 1.353304, -0.855826, -0.571753, -0.159276, -0.090500, 0.944892, 0.659183, 0.169385, -1.445612,
0.475990, -1.250328, 0.272271, -0.018011, 0.320581, 0.334685, -0.568144, -0.003788, -0.826442, 0.939644, 0.015846, 0.484585, -0.069733, -0.308101, -0.473620, -1.424446, 0.659256, 0.377511, 0.662975, 0.112837, -0.613269, 1.598951, -0.609653, -0.401389, -0.712223, 0.124808, 0.944904, 0.834815, 0.339767, -1.508505,
0.661219, -1.404511, 0.380074, 0.077391, -0.063722, 0.218482, -0.315291, 0.015870, -0.957536, 0.246476, 0.233114, 0.315088, -0.013305, -0.019319, -0.224458, -1.645408, 0.682300, 0.284953, 0.456032, -0.324762, -0.847178, 0.842410, -0.271319, 0.033141, -0.964318, 0.681184, 1.063298, 0.737130, 0.341886, -1.619353,
-0.450995, -1.460971, 0.472847, 0.242622, 0.088162, 0.053956, -0.022275, -0.182643, 0.058731, -0.109150, 0.129489, 0.391299, -0.257816, -0.027033, -0.273961, -1.740877, -0.172701, 0.236215, -0.197797, -0.102105, -1.074907, 0.390387, -0.501186, 0.169386, -0.816892, 0.930719, 0.544982, 1.061799, -0.420160, -0.568753,
0.128351, -1.578284, 0.576843, 0.420337, 0.033333, 0.189852, 0.036148, 0.070827, 0.453518, 0.269460, 0.051272, 0.441644, -0.387451, -0.334551, -0.807448, -1.687811, 0.125580, 0.266537, -0.125644, 0.240707, -1.070680, 0.277954, -0.515097, -0.141393, -1.063103, 1.148940, 0.379758, 1.305545, -0.536882, -0.505336,
-0.039686, -0.909238, 0.950297, 0.444329, -0.058256, -0.001112, -0.074830, 0.458367, 0.244556, 0.735155, 0.528727, -0.131232, 0.097517, 0.068107, -0.973203, -1.311238, 0.185609, -0.002864, 0.152678, 0.194835, -0.423494, 0.561706, -0.885073, 0.107982, -0.850238, 1.337344, 0.994840, 1.201145, -0.659873, -0.877772,
-0.523749, -0.335233, 1.078601, 0.217190, -0.378108, -0.038171, -0.329043, 0.346066, -0.235601, 0.451142, 0.211263, -0.311259, 0.324834, -0.154090, -0.518382, -1.013434, 0.245295, 0.048119, -0.262225, 0.183824, -0.915582, 0.349862, -0.166816, 0.098658, -0.156175, 1.107003, 0.640212, 1.079963, -0.649281, -0.652352,
-0.525216, -0.430351, 0.656773, -0.113872, -0.239694, 0.004501, -0.321312, 0.629028, -0.374871, 0.505905, -0.124744, -0.153085, 0.121384, -0.733688, -0.886976, -0.375339, -0.093033, 0.009853, -0.227993, 0.237017, -1.390822, 0.323217, -0.030415, 0.380270, 0.042138, 0.737832, 0.164580, 0.657438, -0.304338, -0.191175,
-0.582798, -0.681416, 0.270401, 0.072112, -0.203304, -0.028141, -0.170251, 0.904484, -0.334103, 0.667163, 0.135289, 0.276191, 0.150370, -0.942659, -0.461148, -0.019422, -0.163287, -0.086931, 0.258462, 0.422771, -1.097111, 0.225986, -0.134322, 0.273469, 0.169256, -0.167763, 0.541780, 0.143220, -0.240895, -0.004011,
-0.025492, -0.152550, 0.277986, -0.223572, 0.243388, 0.434951, -0.286490, 0.795464, 0.083161, 1.369830, -0.896451, 0.493370, -0.637816, -1.651399, -0.486163, -0.154209, 0.515912, 0.024025, 0.600013, 0.289010, -0.931468, 0.549113, -0.384894, 0.521795, -0.436493, 0.245980, 0.452502, 0.374078, -0.340954, -0.482735,
0.066986, 0.094943, 0.283693, -0.052602, 0.414189, 0.829332, -0.196889, 0.737542, -0.025485, 0.989658, -0.876172, 0.237639, -0.565583, -1.387724, -1.074759, -0.034584, 0.302930, 0.049775, 0.807369, 0.244149, -0.624517, 0.909674, -0.522677, 0.023803, -0.183259, 0.164343, 0.191736, 0.203765, 0.160826, -1.054690,
0.060846, 0.009735, 0.173502, -0.191732, 0.378874, 0.983057, -0.015661, 0.625755, 0.160317, 0.955112, -0.686408, 0.345731, -0.615619, -1.167622, -0.858096, -0.487055, 0.304401, 0.363552, 0.837767, 0.087794, -0.775253, 0.495703, -0.478337, 0.027584, -0.349094, 0.245975, 0.069665, -0.239340, 0.577350, -0.577513,
0.135335, 0.001754, 0.169359, -0.965709, 0.487120, 0.624166, -0.015858, 0.902925, -0.164318, 0.724545, -0.599117, 0.189103, -0.788746, -1.085445, -0.742178, -0.322933, 0.379495, 0.428394, 0.755868, 0.053251, -0.505873, 0.073930, -0.257399, 0.491813, -0.884945, 0.179197, -0.045192, -0.098026, 0.572710, -0.333994,
0.114690, 0.229144, 0.065609, -0.473664, -0.129802, -0.042128, -0.621558, 1.019260, -0.304273, 0.903776, 0.047125, 0.034672, -0.547246, -0.305894, -0.600592, -0.716254, 0.091472, 0.482469, 0.288157, 0.266157, -0.250207, 0.909424, -0.304157, -0.028178, -0.683000, 0.207738, 0.440362, -0.166807, 0.381929, -0.999729,
0.596080, -0.070966, -0.361327, -0.149114, -0.238416, -0.538696, -0.176691, -0.037756, 0.160179, 0.689964, 0.449077, 0.569726, -0.169542, 0.221268, -0.619908, -0.345192, 0.592747, 0.406911, 0.008899, 0.003921, -0.079024, 0.491896, -0.793203, -0.528828, 0.084887, 0.523334, 0.225190, 0.013170, 0.858538, -0.679935,
0.347406, 0.082265, -0.311532, -0.112218, -0.364460, -0.478529, 0.110454, -0.291973, -0.024049, 0.092740, 0.340358, 0.367531, 0.277474, 0.276690, -0.137993, -0.152657, 0.268670, -0.045728, -0.108873, 0.036767, -0.108267, 0.054099, -0.320164, -0.406887, 0.342579, 0.444072, 0.139295, 0.002470, 0.296620, -0.326961,
-0.075779, 0.018950, 0.001133, 0.041253, -0.025063, 0.060150, 0.081508, -0.056118, -0.018534, 0.054329, 0.047640, -0.044331, -0.048808, -0.071058, 0.037454, -0.041236, 0.074272, 0.038201, 0.016519, 0.024032, -0.082281, -0.006698, 0.038166, -0.001579, -0.008315, 0.033388, 0.069260, -0.039971, -0.063279, 0.003514,
-0.011724, 0.016121, 0.007007, -0.060502, 0.025487, -0.016408, 0.024254, 0.005774, 0.022362, 0.010448, 0.035394, 0.012171, 0.023057, -0.014418, 0.060856, 0.059826, -0.032669, 0.006505, -0.036170, -0.009115, 0.080559, 0.023158, -0.044421, -0.081227, -0.084746, -0.032641, 0.023393, -0.076696, -0.004677, 0.013354,
-0.050435, 0.026588, 0.031363, -0.015751, -0.036013, -0.029307, 0.048204, 0.080418, -0.049587, -0.020917, -0.027191, -0.079624, -0.077607, -0.017586, -0.041444, 0.078580, -0.030540, -0.049863, 0.015777, 0.048013, 0.083008, -0.034588, 0.000987, 0.050724, 0.030314, -0.006561, -0.045886, 0.033716, -0.047178, 0.031332,
0.048917, -0.038326, 0.014031, 0.084014, -0.001963, -0.020684, 0.024495, 0.080302, 0.005171, 0.020084, 0.044324, -0.048588, 0.050983, -0.081138, 0.061785, 0.054562, 0.046185, -0.001913, 0.061648, -0.028125, 0.084167, 0.049497, 0.035101, 0.064603, 0.012956, -0.073883, 0.055543, 0.029592, 0.061875, 0.078517,
-0.337518, 0.037657, 0.388203, 0.247826, 0.140377, -0.086679, -0.271501, 0.346008, 0.070657, -0.019704, 0.504775, -0.331483, 0.350561, 0.277408, 0.457429, 0.376265, -0.224193, 0.016145, -0.450334, 0.403643, 0.479409, 0.195725, -0.427925, 0.444447, 0.169123, 0.193829, 0.004519, 0.260532, -0.397251, 0.011240,
-0.506807, 0.034123, 0.475961, -0.395270, 0.423752, 0.420056, -0.366905, 0.479113, -0.442789, 0.504841, 0.173600, -0.248105, 0.266864, -0.329288, 0.369710, 0.089393, -0.509003, 0.065485, -0.491291, -0.242478, 0.404825, 0.524215, 0.187123, 0.160399, -0.389407, -0.149682, 0.432538, -0.122512, 0.064007, -0.054134,
-0.304644, -0.344620, 0.671462, -0.830350, 0.526503, 0.520869, -0.412661, 0.570022, -0.462866, 0.421914, -0.471028, -0.135370, 0.013293, -0.446487, -0.236687, -0.322608, -0.090951, -0.141723, -0.213572, 0.080458, -0.144926, 0.568261, 0.020123, 0.129252, 0.244410, 0.223027, 0.509392, 0.460734, -0.309169, 0.077129,
0.050548, 0.019095, 0.441541, -0.147005, -0.335774, -0.406786, 0.038009, -0.059229, 0.305412, 0.738553, -0.314328, -0.329137, 0.110481, -0.607021, -0.110272, -0.544108, 0.514494, -0.531673, 0.735237, 0.362583, 0.112156, -0.097304, 0.169788, -0.072938, 0.309404, -0.044764, 0.443254, 0.837504, 0.649278, -0.493894,
0.331569, -0.108063, -0.482171, -0.150925, -0.293268, -0.067016, -0.440346, -0.117693, -0.134605, 0.742691, -0.222870, -0.194414, 0.458254, -0.376137, -0.211329, -1.046656, 0.929520, -0.158694, 0.650169, 0.561721, 0.017252, 0.281207, 0.021104, -0.383994, 0.066825, -0.188574, 0.739409, 0.812835, 0.478539, -0.795761,
0.629268, -0.146294, -0.235966, -0.372413, -0.117714, -0.039659, -0.105726, -0.034314, -0.065045, 1.061596, -0.312542, -0.142524, -0.082481, -0.292716, -0.181353, -0.755188, 0.460738, -0.293292, 0.423152, 0.811294, -0.110601, 0.250108, 0.475622, -0.197076, -0.193459, -0.411335, 1.300880, 0.489962, 0.414847, -0.701259,
0.229616, -0.210004, -0.297418, -0.016775, -0.607315, 0.148242, 0.282029, 0.324827, -0.706651, 1.262560, -0.509665, -0.342802, 0.250727, 0.013171, 0.132346, -0.759394, -0.007354, -0.321983, 0.332272, 0.823611, -0.090700, 0.531507, 0.409523, -0.897565, -0.380036, -0.665890, 1.196373, -0.069855, 0.991124, -0.966353,
0.619644, -0.500418, -0.019209, 0.570496, -0.470531, 0.127762, -0.049878, 0.271629, -0.726239, 1.206298, -0.126566, 0.479781, 0.342324, 0.081606, -0.140466, -1.061076, 0.355561, -0.064419, 0.362077, 1.081812, -0.093452, 0.540535, -0.507861, -0.790104, -0.185163, -0.057516, 0.755158, -0.059701, 0.104122, -0.907675,
0.660121, -0.184655, -0.159992, 0.445180, -0.500233, 0.131317, -0.060132, -0.320731, -0.741333, 0.855367, -0.522627, 0.481588, 0.046110, 0.132960, -0.384817, -1.188496, -0.003484, 0.085724, 0.094048, 1.220328, -0.079320, 0.111642, -0.037137, -0.948753, 0.129513, -0.284176, 0.015754, 0.093910, 0.319906, -0.536523,
0.739904, 0.250010, -0.019160, 0.348285, -0.368718, -0.215760, 0.335454, -0.275258, -0.296129, 0.649281, -0.773277, 0.427591, 0.091288, 0.120875, -0.474127, -0.854873, 0.008099, 0.263475, 0.418966, 0.693210, -0.116121, -0.181722, 0.224000, -0.854476, -0.109389, -0.588966, 0.482920, -0.199259, 0.468943, -0.598772,
0.322563, 0.065800, 0.209393, 0.383297, -0.553620, -0.403772, 0.510602, -0.019608, -0.420204, 0.651980, -0.616938, -0.031788, 0.408653, 0.134642, -0.378777, -0.680446, -0.319930, 0.152888, 0.007056, 0.670534, 0.356690, 0.232465, 0.122694, -0.503765, -0.429553, -0.287826, 0.806404, -0.406921, -0.103084, -0.953100,
-0.185214, -0.418483, 0.375733, 0.747406, -0.667802, -0.211980, -0.207532, 0.232485, 0.073300, 0.928021, -0.292355, 0.048576, 0.421282, 0.061111, -0.397427, -0.929463, -0.226058, 0.353595, -0.251975, 0.207797, -0.174895, 0.321421, -0.131693, -0.476565, -0.586422, 0.141143, 1.513093, -0.376987, 0.081745, -0.989832,
-0.008847, -0.432197, 0.603427, 0.491743, -0.528740, -0.184371, -0.238240, -0.281815, 0.453022, 0.373091, -0.796094, -0.105077, 0.410295, -0.060772, -0.169985, -0.809107, 0.046341, 0.222862, -0.082845, 0.176140, -0.651093, -0.315010, 0.021619, -0.259677, -0.321897, 0.016425, 0.941810, -0.426575, 0.368717, -0.679760,
-0.044077, -0.449572, 0.522211, 0.270415, -0.319350, -0.552268, -0.623283, -0.127933, 0.209438, 0.523273, -0.759176, -0.348476, 0.175071, -0.317306, 0.018041, -0.263895, -0.096164, -0.175334, 0.069431, 0.257994, -0.290951, -0.240302, -0.270516, -0.326610, 0.019493, 0.364855, 1.360067, -0.352752, 0.093598, -0.499849,
-0.018851, -0.245015, 0.195624, 0.345929, -0.195434, -0.416807, -0.392874, -0.031441, 0.247047, 0.450116, -0.293348, -0.195899, -0.169618, 0.017555, 0.193264, -0.529947, -0.003513, -0.052568, 0.079169, -0.065460, 0.153823, -0.339191, -0.401858, -0.479829, 0.028469, 0.196713, 1.131568, -0.438311, -0.026967, -0.272120,
-0.245231, 0.202722, 0.153045, 0.088241, -0.128217, -0.190252, -0.129702, -0.017596, 0.260999, 0.381680, -0.374222, -0.003163, -0.409611, -0.154840, 0.266546, -0.483326, -0.047924, -0.178564, -0.333335, -0.082308, 0.031579, -0.362826, -0.109166, -0.105172, -0.115035, -0.166929, 0.719386, -0.212715, -0.108974, -0.197419,
-0.368271, 0.333493, -0.004273, -0.230622, -0.096614, 0.178116, -0.287036, 0.169857, 0.208500, 0.533705, -0.476074, 0.158365, 0.142211, -0.584990, 0.074747, 0.222376, -0.527907, -0.719042, -0.090651, -0.194334, -0.145236, -0.066551, 0.114799, -0.136486, 0.336177, -0.016759, 0.510618, -0.310701, -0.269149, -0.057570,
-0.016754, -0.063882, 0.225536, -0.339752, -0.151882, 0.397920, -0.413054, 0.831252, -0.073687, 0.337821, -0.748439, -0.145987, 0.083114, -0.422494, 0.025851, -0.234928, 0.245905, -0.286215, 0.112658, -0.134138, -0.197187, -0.188803, 0.164020, -0.338013, 0.020378, 0.367808, 0.091749, -0.162610, -0.164165, 0.001411,
0.004717, 0.379186, 0.690944, -0.105219, -0.129936, 0.409896, -0.301310, 0.397353, -0.303263, 0.842259, -0.617851, -0.487441, 0.022125, -0.652078, -0.174493, -0.217042, 0.395184, 0.058409, -0.069947, 0.182673, -0.229095, -0.639739, 0.552533, -0.559463, 0.085810, 0.152174, 0.222055, 0.384096, -0.100799, 0.077949,
0.277727, 0.369954, 1.000056, -0.385970, 0.570721, 0.810025, -0.446246, 0.429115, -0.484932, 0.329131, -0.122758, -0.181188, 0.323082, -0.533517, -0.492596, 0.007123, 0.656905, 0.112315, 0.104995, 0.172525, -0.216571, -0.318778, -0.081840, -0.094224, 0.190479, 0.091201, 0.167980, 0.465336, -0.087079, 0.054031,
0.300090, 0.286392, 0.835936, -0.636954, 0.835595, 0.724294, -0.375891, 0.176335, -0.457886, 0.128264, 0.016712, 0.731954, 0.570117, -0.202204, -0.327029, -0.318074, 0.505607, 0.086440, 0.092082, -0.142919, -0.549267, -0.084200, -0.368066, 0.201092, 0.179954, -0.178849, 0.026010, 0.166039, 0.033924, -0.151828,
0.089628, 0.101485, 0.232996, -0.299913, 1.000601, 0.355846, -0.581233, 0.414085, -0.254955, 1.005778, 0.286831, 0.176536, -0.114872, -0.782888, 0.114979, -0.324196, 0.285685, 0.296989, 0.014667, 0.011603, -0.240687, 0.230505, -0.193573, 0.152468, 0.229585, -0.674314, 0.187381, -0.296463, 0.214912, -0.286664,
-0.182607, 0.081301, 0.064338, 0.326011, 0.414939, 0.182256, -0.330959, 0.382374, 0.014924, 1.031806, 0.286625, 0.266890, -0.418915, -0.516535, 0.182847, -0.311530, 0.526512, 0.546721, -0.356424, 0.422559, -0.767910, 0.216461, 0.193499, -0.505441, 0.286967, -0.892049, -0.211180, -0.427124, 0.253268, -0.210847,
0.216959, 0.128681, -0.006278, 0.465357, -0.165718, -0.436751, -0.133335, -0.256535, 0.393965, 0.189396, 0.561775, 0.206745, 0.148525, 0.233746, 0.382618, -0.366444, 0.428506, 0.634807, -0.364232, 0.105909, -0.447029, -0.446435, -0.120794, -0.587917, 0.253697, -0.654191, -0.243981, -0.535645, -0.189686, 0.247688,
0.233256, -0.216662, 0.203835, -0.301521, -0.343727, 0.148822, -0.362231, 0.411617, 0.130840, 0.465242, -0.355656, 0.496309, -0.269946, -0.347325, -0.245515, -0.408824, 0.495734, 0.087716, 0.223168, 0.123746, -0.456096, -0.121364, 0.239094, 0.152441, -0.524654, -0.368225, -0.323940, -0.056754, 0.292284, -0.298795,
0.018727, -0.021973, 0.033657, -0.001550, 0.047536, 0.049345, 0.078654, 0.064633, -0.001080, 0.078268, 0.036272, -0.047302, 0.062786, 0.059985, 0.018356, -0.026259, 0.009113, -0.075993, -0.078383, 0.028272, 0.074473, -0.005039, 0.068548, -0.033452, -0.025612, 0.048911, -0.004282, 0.020493, -0.032558, 0.028736,
0.012062, -0.075395, 0.079928, -0.078098, -0.028632, -0.036995, 0.077469, 0.022816, 0.016163, 0.071279, 0.041396, -0.062456, 0.014987, 0.039267, 0.041979, 0.050632, -0.001200, -0.025690, 0.040535, -0.007024, -0.025301, 0.007140, -0.069082, 0.066181, 0.030908, -0.065779, 0.072298, 0.035047, 0.020953, -0.080909,
0.039677, 0.063188, -0.049184, 0.066076, 0.017629, -0.091163, 0.203506, -0.001504, -0.066163, -0.060501, 0.031595, -0.180147, -0.108863, -0.087345, 0.005961, -0.035189, -0.132909, -0.019925, 0.028292, 0.075845, 0.000073, -0.179774, 0.032346, -0.010609, -0.055319, -0.153544, 0.041421, 0.002389, -0.035035, -0.035150,
-0.485376, -0.267921, 0.073516, 0.149722, -0.112964, -0.633745, 0.393217, 0.440811, 0.279740, 0.240153, 0.496210, -0.411129, 0.475723, 0.385342, 0.462699, 0.379463, -0.414623, -0.056283, -0.395312, 0.406821, 0.449605, -0.112476, 0.037865, -0.079779, 0.193787, 0.139076, 0.027762, 0.351289, -0.411988, -0.133228,
-0.266409, 0.234307, 0.618614, 0.053333, -0.436187, -0.286067, 0.301485, -0.177432, 0.428780, -0.016711, 0.247605, -0.461622, 0.607620, -0.413671, 0.387953, 0.427825, -0.397864, 0.000833, -0.654827, 0.466131, 0.750284, -0.436445, 0.491729, -0.379491, 0.509142, -0.699666, -0.235196, -0.445217, -0.524923, 0.375299,
-0.114433, -0.314788, 0.759571, -0.566214, 0.231477, 0.040498, 0.531646, -0.008434, 0.158387, 0.106314, -0.099077, -0.356296, -0.568756, -0.686256, -0.274493, 0.031284, 0.117302, 0.143426, 0.506579, 0.419654, 0.252132, -0.128200, 0.153241, -0.558158, 0.031386, -0.041397, 0.296983, 0.500476, 0.140098, -0.227153,
0.044639, -0.445865, 0.192427, -0.326801, -0.055879, -0.219338, 0.572111, -0.352244, 0.450960, 0.641155, 0.063716, -0.234063, -0.297306, -0.326763, -0.608270, -0.258754, -0.168902, -0.458522, 0.733931, 0.739313, 0.169258, -0.026511, -0.036702, -0.262449, 0.230128, 0.089029, 0.060190, 0.802535, 0.666137, -0.773729,
0.303036, 0.048972, -0.041709, -0.039616, -0.511348, -0.171176, 0.171293, -0.642307, 0.481751, 0.792937, -0.170654, -0.137023, 0.232995, 0.091427, -1.001289, 0.134342, 0.176348, -0.442781, 0.645074, 0.637118, 0.280568, -0.070793, 0.454304, -0.856546, 0.269135, -0.023152, 0.293983, 1.008644, 1.066989, -0.295923,
-0.067535, 0.035353, -0.059144, -0.100461, -0.189759, 0.104933, 0.250214, -0.612482, 0.198994, 0.730645, -0.189441, -0.075368, 0.186868, -0.148432, -1.329663, 0.198935, 0.076721, -0.626236, 0.290024, 0.688054, 0.098716, -0.161760, 0.583243, -1.100504, 0.393650, -0.055270, 0.651570, 0.845483, 0.821339, 0.013165,
-0.050624, -0.281654, -0.168442, 0.271271, -0.231963, -0.330528, 0.455677, -0.339875, 0.001864, 1.196880, 0.094864, -0.172021, -0.406615, 0.081557, -0.960247, -0.377884, 0.093148, -0.951376, 0.214007, 0.418250, 0.156749, 0.273098, 0.016612, -1.132199, 0.079695, 0.556868, 0.678298, 0.333250, 1.279282, -0.558568,
-0.192205, -0.377958, -0.003910, 0.345552, -0.512525, -0.228329, 0.171760, -0.360910, 0.015726, 1.221880, 0.032511, 0.032599, -0.382698, 0.143896, -0.827657, -0.495888, 0.038537, -0.406058, -0.067006, 0.355557, -0.340559, -0.044488, -0.035530, -0.496818, 0.082969, 0.436624, 0.781764, 0.113361, 1.036656, -0.363678,
-0.126543, -0.208955, 0.009799, 0.041373, -0.398257, -0.221460, 0.172253, -0.096456, -0.119242, 1.210043, -0.076517, -0.090808, -0.264465, 0.018236, -0.769664, -0.215993, -0.082509, -0.526009, -0.208872, -0.005178, -0.240100, 0.130699, 0.246002, -0.586023, 0.319294, 0.347452, 0.689899, 0.057467, 0.903082, -0.389486,
0.014387, 0.192782, 0.088108, 0.182509, -0.162165, -0.037263, 0.160744, -0.294685, -0.105060, 0.759382, -0.110616, -0.025929, -0.047197, 0.243394, 0.181156, -0.017132, -0.317773, -0.184946, -0.327372, 0.269827, -0.265682, -0.073702, 0.431962, -0.328615, 0.424578, 0.246623, 0.558043, -0.252322, 0.523615, -0.017731,
-0.254310, 0.027891, -0.372368, 0.157803, -0.072779, -0.150377, 0.285157, -0.290987, -0.258146, 0.408835, 0.072928, -0.138434, 0.090695, 0.106790, -0.112894, -0.221071, -0.133409, -0.084045, -0.218412, 0.134085, -0.042806, -0.097855, 0.273855, -0.381818, 0.219852, 0.459661, 0.379990, -0.052445, 0.407538, -0.358149,
-0.129913, 0.084723, -0.221255, 0.091375, -0.044198, -0.250508, 0.182074, -0.133691, 0.039078, 0.398317, -0.050705, -0.118402, -0.109183, 0.066955, -0.129907, -0.314735, 0.142812, 0.093167, -0.337715, -0.028924, 0.061362, -0.114892, 0.198620, -0.409180, -0.214031, 0.776474, 0.786199, 0.257817, 0.089175, -0.261566,
-0.169408, 0.064984, -0.579389, 0.341522, 0.008672, -0.067203, 0.086670, -0.248167, -0.155056, 0.383635, 0.118188, -0.064987, 0.173232, -0.169143, 0.165565, -0.227173, 0.040004, -0.146773, -0.282392, -0.044002, -0.074554, -0.043470, 0.226923, -0.093017, 0.063333, 0.329558, 1.185891, -0.368179, 0.106550, -0.205236,
-0.251254, 0.247067, 0.053707, 0.247931, -0.282375, -0.014620, -0.064227, -0.330863, -0.186823, 0.356059, -0.085094, -0.157537, 0.196876, -0.161213, 0.313167, 0.223721, -0.073508, -0.130531, -0.250634, 0.046102, -0.067998, -0.075163, 0.443133, -0.104243, 0.084331, -0.078530, 0.912368, -0.295481, 0.067481, -0.181455,
-0.372364, 0.115465, -0.046829, 0.003245, -0.230963, 0.091210, 0.145094, -0.342232, 0.138084, 0.573129, 0.016522, 0.075477, 0.100592, -0.181967, -0.013840, 0.085934, 0.053875, 0.116550, -0.111820, -0.229876, -0.027279, -0.174920, 0.021667, -0.047605, 0.095787, 0.033593, 0.653411, -0.246634, 0.190313, -0.539242,
-0.237457, -0.000329, 0.132951, -0.044518, 0.064841, 0.262257, -0.088915, -0.409172, 0.169916, 0.393993, -0.140744, 0.200354, -0.150564, 0.015235, -0.143724, 0.028615, 0.243789, 0.263382, 0.068187, -0.281902, -0.188957, -0.131437, -0.271305, 0.068644, 0.081916, -0.155281, 1.042186, -0.131844, 0.121243, -0.244503,
-0.322057, 0.228216, 0.022641, 0.153104, -0.003465, 0.256912, -0.377468, -0.054494, 0.364880, 0.798691, -0.024423, 0.052496, 0.039920, -0.035317, -0.160963, 0.342920, 0.004855, 0.193687, -0.295194, 0.146693, 0.040004, -0.094274, -0.069924, -0.204760, 0.406789, -0.106999, 0.937986, 0.013916, -0.278842, -0.168401,
-0.527047, 0.114617, -0.175112, -0.381903, 0.086698, 0.422137, -0.331223, 0.351471, 0.399230, 0.835957, -0.058942, 0.008726, -0.139996, -0.157870, 0.106903, 0.080830, -0.077268, 0.237373, 0.035770, 0.091239, 0.068569, -0.189113, 0.004228, -0.153255, 0.148584, 0.470986, 0.422438, 0.206363, -0.005970, -0.258217,
-0.595429, 0.091118, -0.169866, -0.146251, 0.213508, 0.441629, -0.324387, 0.335374, 0.472261, 0.691412, -0.057169, 0.138368, 0.104253, -0.475795, 0.009104, -0.099298, 0.109163, -0.048532, 0.177211, -0.074761, -0.297232, -0.235249, -0.072301, -0.080006, 0.276286, 0.412825, 0.057381, 0.168512, 0.178892, -0.101260,
-0.236779, -0.056395, 0.312850, -0.090930, 0.304657, 0.850053, -0.367153, 0.011646, 0.135686, 0.622204, -0.063468, 0.328134, 0.085576, -0.711584, -0.432576, 0.167126, 0.456906, 0.067098, 0.070404, 0.231169, 0.017207, -0.318774, -0.025559, 0.097747, 0.099549, 0.394679, -0.409834, 0.230067, -0.068391, 0.068905,
0.030489, 0.336000, 0.233312, -0.443560, 0.284496, 0.921117, -0.230339, -0.310763, 0.124659, 0.565596, -0.070091, 0.157491, 0.051685, -0.348519, -0.132486, 0.207341, 0.546790, 0.269890, -0.262243, 0.236035, -0.169086, -0.281712, 0.070217, 0.175125, -0.064389, 0.078172, -0.284543, 0.275528, 0.154008, 0.057072,
0.199317, 0.524852, 0.420578, -0.794843, 0.518917, 0.860685, -0.713467, 0.009203, -0.378977, 0.395230, -0.101722, 0.205430, 0.052881, -0.162995, -0.179219, 0.094993, 0.893194, 0.385054, -0.348277, 0.194739, -0.434822, 0.234883, -0.222802, 0.561742, -0.127723, 0.046558, -0.461978, 0.430285, -0.100228, 0.139094,
-0.266497, 0.368210, -0.059765, -0.817780, 0.267910, 0.546993, -0.484987, -0.116987, -0.687761, -0.173380, 0.248895, 0.590559, 0.231322, -0.567475, -0.638895, 0.357246, 0.386976, -0.029924, -0.325720, 0.487456, -0.350302, -0.271864, 0.237631, -0.011734, 0.692359, -0.477422, -0.075704, -0.131236, -0.434348, 0.126487,
-0.196211, 0.142003, -0.303658, -0.409720, 0.199312, 0.142802, -0.459245, -0.106958, -0.656473, -0.120436, 0.442901, 0.729854, 0.683731, -0.789142, -0.497955, 0.366239, 0.136818, -0.238150, -0.145197, 0.658190, -0.958326, -0.107944, -0.262178, 0.072531, 0.546567, -0.421937, 0.473049, -0.529593, -0.237992, -0.014183,
-0.204028, -0.023164, -0.353290, -0.301818, -0.285392, -0.342148, -0.447328, 0.026136, -0.631023, 0.646961, 0.377814, 0.130315, 0.699640, -0.169253, 0.188978, 0.256959, -0.266336, -0.298862, 0.182279, 0.580343, -0.613103, 0.355135, -0.022742, 0.681162, -0.069099, -0.765282, 0.528528, -0.668350, -0.254492, 0.082738,
-0.031680, -0.616321, -0.172299, -0.501006, 0.415940, 0.044951, -0.424349, 0.423438, 0.001360, 0.515650, -0.321545, 0.513375, 0.014379, -0.345725, -0.404123, -0.476105, -0.220790, -0.013625, 0.437048, -0.301209, -0.438628, 0.523913, -0.565134, -0.276041, -0.409876, -0.061963, 0.368488, -0.075528, 0.487694, -0.385394,
0.053606, -0.066829, -0.002700, -0.061389, 0.058508, -0.031767, -0.017302, 0.017513, 0.058525, -0.043248, 0.071368, -0.047612, -0.016203, -0.080036, -0.021011, 0.011988, -0.042745, -0.044060, -0.083137, 0.021164, 0.066660, -0.039864, -0.054527, -0.011816, -0.003600, 0.012618, 0.004992, 0.053027, 0.060404, 0.039821,
-0.063721, -0.004306, 0.054044, -0.079358, -0.002261, -0.046070, 0.065470, -0.033972, 0.002978, -0.024596, -0.065138, -0.003734, -0.066411, -0.031966, -0.080846, -0.070604, 0.061273, -0.074143, 0.010796, 0.070555, -0.069754, -0.029602, 0.012803, -0.059880, -0.080637, 0.050122, -0.005048, 0.023795, -0.069081, 0.042027,
-0.312360, -0.139029, 0.050507, -0.303991, 0.321806, -0.679555, 0.084991, 0.702635, 0.517152, 0.663863, 0.501302, -0.335335, 0.524692, -0.341126, 0.021959, 0.496464, -0.312464, 0.024871, -0.211334, 0.622066, 0.456331, 0.948961, -0.701996, 0.010437, 0.188149, 0.592410, 0.485389, 0.357172, -0.227802, -0.627117,
-0.061580, 0.533618, -0.336972, 0.027509, -0.582803, -0.644762, 0.460987, -0.517138, 0.776265, -0.223360, 0.079340, 0.053339, 0.574856, -0.072416, -0.315089, 0.025574, -0.168376, -0.271930, -0.425106, 0.547541, 0.126873, -0.007130, 0.297281, -0.449260, 0.597468, -0.038630, 0.031789, -0.149904, -0.344783, -0.213233,
0.179231, 0.028741, 0.041647, -0.398662, -0.250403, -0.289942, 0.537288, -0.411916, 0.801168, 0.640530, 0.068057, -0.112133, -0.621441, -0.255420, -0.599883, -0.210696, 0.442920, -0.303487, 0.499822, 0.893346, -0.086301, 0.484647, -0.090295, -0.389601, 0.320921, 0.703471, 0.560187, 0.887678, 0.838932, -0.784065,
-0.309253, -0.323747, 0.413276, 0.080106, -0.063263, -0.351786, 0.511694, -0.078066, 0.486844, 0.433378, 0.076695, -0.203612, -0.121242, -0.277894, -0.074136, 0.062218, 0.046270, 0.207050, 0.577816, 1.116359, 0.630344, 0.240898, -0.040390, -0.341489, 0.589060, 0.343068, -0.423159, 0.206252, 0.743349, -0.396085,
-0.284466, 0.079886, 0.229900, 0.252602, -0.295279, -0.184812, 0.317782, -0.217802, 0.030789, 0.676372, -0.006431, -0.213373, 0.063536, 0.137830, -0.472758, 0.310491, -0.024671, 0.203216, 0.369756, 0.623250, 0.602314, 0.090433, -0.039040, -0.720944, 0.086604, 0.191556, -0.114898, 0.249037, 0.996926, -0.280684,
-0.204246, -0.291359, 0.028290, 0.285582, -0.106312, -0.117504, 0.242811, -0.147242, -0.125369, 0.349354, 0.181019, -0.068593, 0.018179, -0.257392, -0.682618, 0.151902, -0.376541, -0.101137, 0.543220, 0.141022, 0.294888, 0.134673, 0.191870, -0.966571, 0.143477, 0.330024, -0.038586, -0.313626, 0.615364, -0.421422,
0.283953, -0.315507, 0.312512, 0.592361, -0.417209, -0.123256, 0.041706, 0.082282, -0.044350, -0.059757, -0.060728, 0.163954, -0.034746, -0.123115, -0.363957, -0.117559, 0.419869, 0.175320, 0.561787, 0.142787, -0.022485, 0.005949, 0.257334, -0.738183, 0.097285, 0.624967, -0.434960, -0.413980, 0.503748, -0.299749,
0.054501, -0.170312, 0.219321, 0.057688, -0.323820, 0.083364, -0.045924, -0.010324, -0.145211, 0.235026, -0.066661, 0.293602, 0.097698, 0.160601, -0.050511, -0.012275, 0.310579, 0.369521, 0.124332, -0.038403, -0.098748, -0.199724, 0.264804, -0.326182, 0.342185, 0.320259, -0.380874, -0.078236, 0.560139, -0.131276,
-0.074713, 0.142678, 0.186622, 0.061669, -0.189589, 0.075174, -0.194591, 0.169137, -0.059443, 0.218959, -0.097771, 0.199332, -0.111095, 0.116040, 0.017122, -0.125894, -0.067373, 0.295425, -0.123536, 0.211402, -0.129496, 0.058720, 0.078909, -0.419174, 0.462917, 0.137124, 0.145030, -0.342030, 0.645184, -0.058624,
-0.060655, 0.349959, -0.184375, 0.315718, -0.064591, 0.007207, -0.112992, -0.215793, -0.183688, 0.410453, 0.403654, 0.500781, -0.330555, 0.283096, 0.084062, 0.002648, -0.318147, -0.083331, -0.001487, 0.236677, -0.326175, -0.367279, 0.164568, -0.208793, 0.711780, -0.036070, 0.011160, -0.315775, 0.253805, 0.330649,
-0.074057, -0.020589, -0.238086, 0.211991, -0.005575, -0.265289, -0.051557, -0.156956, -0.313592, 0.149001, 0.246621, 0.378015, -0.229878, 0.142784, -0.127336, 0.007813, -0.163902, -0.233543, 0.268665, 0.157686, 0.092203, -0.219223, 0.053478, -0.231259, 0.643780, 0.035430, -0.149230, -0.350352, 0.457201, 0.297179,
-0.462337, 0.123131, 0.136955, 0.281396, -0.262047, -0.334386, -0.204314, -0.085933, -0.299943, 0.176834, 0.346958, -0.014251, -0.129391, 0.177146, 0.298786, -0.099865, -0.077589, -0.195593, 0.027077, 0.059797, -0.005284, -0.124300, 0.113759, -0.259390, 0.087220, -0.361633, 0.097933, -0.201686, 0.308986, 0.275266,
-0.319754, 0.154419, 0.120287, 0.056789, -0.305463, -0.080189, -0.164227, -0.214654, -0.309087, 0.284449, 0.004471, 0.063388, 0.005058, 0.187841, 0.079672, -0.149063, -0.112835, -0.156647, 0.060810, -0.000452, -0.022161, -0.160735, -0.022227, -0.053708, -0.197185, 0.053530, 0.004174, -0.378902, 0.384910, 0.223833,
-0.448004, 0.179838, 0.065543, 0.093089, -0.207222, -0.251575, -0.113809, -0.279067, -0.249536, 0.537434, -0.112012, 0.043739, 0.054073, -0.139876, 0.319819, -0.232262, -0.045269, -0.575463, -0.189081, 0.172218, 0.007283, 0.060140, -0.007820, -0.213303, -0.004490, 0.060647, -0.174542, 0.025138, 0.183877, -0.132837,
-0.365533, 0.076442, 0.064761, 0.168850, -0.132298, 0.040050, -0.061278, -0.389424, 0.167508, 0.685815, -0.028962, 0.083946, 0.128032, -0.107975, -0.126355, -0.076908, -0.164642, -0.495086, -0.285275, 0.052759, -0.144131, 0.026939, -0.162499, -0.205586, 0.281166, -0.092440, -0.100720, -0.263146, 0.419399, -0.331793,
-0.138866, 0.135813, 0.169840, 0.144570, 0.110959, 0.280386, -0.213141, -0.530518, 0.223315, 0.952921, -0.054774, -0.157781, -0.229408, 0.065926, -0.248110, 0.136247, -0.278378, -0.374362, -0.191261, -0.087170, -0.203678, 0.148161, -0.111394, 0.031961, 0.177215, -0.286736, -0.088627, -0.332324, 0.375480, 0.036312,
-0.204435, 0.380125, -0.050165, 0.129526, -0.014212, 0.097150, -0.291638, -0.261825, 0.350264, 1.039274, -0.006351, 0.084881, -0.251774, -0.020817, -0.237178, -0.133568, 0.011151, -0.167975, -0.273048, 0.100138, -0.159621, -0.071573, -0.237690, -0.360511, 0.042286, -0.351608, 0.074721, -0.177669, -0.015366, -0.000897,
-0.456823, 0.206351, -0.040151, -0.312686, 0.058580, 0.119287, 0.008261, -0.378611, 0.455922, 0.876438, -0.238183, 0.009833, -0.303501, -0.363062, -0.130781, -0.024414, -0.236264, -0.106291, -0.267356, 0.103180, -0.166214, 0.013244, -0.223413, -0.053496, -0.107700, -0.108718, 0.373346, -0.215561, 0.129511, -0.014269,
-0.837473, 0.330559, 0.085661, -0.245610, 0.218400, 0.075294, 0.032606, -0.085073, 0.273835, 0.453539, -0.075914, 0.031146, 0.092094, -0.360472, -0.152336, 0.267774, -0.224249, -0.049908, -0.111240, 0.030178, -0.462466, 0.120950, -0.273578, 0.313605, 0.284280, 0.005987, 0.828831, -0.196537, -0.044289, -0.026238,
-0.732807, 0.024745, -0.138226, -0.020438, 0.111704, 0.451142, -0.264264, -0.053121, 0.190301, 0.374857, -0.031797, 0.207813, 0.580630, -0.109855, 0.004847, 0.051718, -0.302634, 0.240481, -0.026506, -0.012731, -0.169890, -0.019957, -0.351630, 0.111946, 0.180946, 0.286923, 0.501867, 0.156792, 0.049153, -0.059506,
-0.738081, -0.122323, 0.031931, -0.216291, -0.086941, 0.559845, -0.449862, -0.433034, 0.269967, 0.180556, 0.089770, 0.058238, 0.349336, -0.111054, 0.174954, 0.175697, -0.473348, 0.533309, -0.424676, 0.276276, 0.251858, -0.277105, -0.334848, 0.134357, -0.171427, 0.406817, 0.207679, 0.400632, 0.079472, 0.083322,
-0.108483, -0.215866, 0.371459, -0.803777, 0.009587, 0.608412, -0.906856, -0.151782, 0.225206, 0.195439, -0.075162, 0.227855, 0.129323, -0.347443, -0.064067, -0.194091, 0.220015, 0.374160, -0.333839, 0.275472, 0.101424, 0.038284, -0.774905, 0.198820, -0.242430, 0.490615, 0.001709, 0.374857, 0.036510, -0.566279,
-0.184889, 0.058873, 0.283071, -1.025422, 0.096722, 0.317901, -1.044340, -0.248630, -0.346826, 0.496858, 0.288159, 0.632796, 0.408108, -0.694461, -0.281561, -0.050214, -0.017636, 0.144642, -0.328504, 0.482293, 0.120116, 0.252908, -0.581929, 0.183667, 0.041680, -0.192220, -0.090461, 0.138674, -0.307737, -0.626533,
0.255145, 0.114616, 0.067801, -0.090174, -0.279290, 0.378871, -1.095350, -0.800775, -0.496186, 0.355264, 0.342158, 1.162288, 0.855777, -0.789671, -0.730826, 0.101764, -0.063518, -0.098124, 0.368387, 0.921752, -0.995242, -0.051454, -0.506393, -0.030763, 0.016154, -0.911964, 0.068596, -0.684613, -0.176838, -0.252415,
-0.281036, -0.411533, -0.148240, -0.354469, 0.031941, 0.653599, -0.326974, 0.467774, -0.506818, 0.465046, -0.386305, 0.479387, 1.266567, 0.157161, -0.851252, -0.070461, -0.426968, -0.017040, 0.345062, 0.274896, -0.839050, 0.205417, 0.779129, 0.946759, -0.294636, -0.721383, 0.478343, -0.289293, -0.271919, -0.353451,
0.103155, -0.468603, -0.257132, -0.504505, 0.459076, 0.255298, -0.385284, 0.357883, 0.036416, 0.455022, -0.373254, 0.420152, 0.331162, -0.511680, -0.568470, -0.407091, -0.015672, 0.009023, 0.381243, -0.301858, -0.341665, 0.472822, -0.228866, -0.235964, -0.330251, 0.310573, -0.107804, 0.004588, 0.290396, -0.512128,
-0.040004, 0.018521, -0.011886, -0.077094, -0.054408, 0.033238, -0.073538, -0.035352, 0.059156, -0.038684, 0.052001, 0.075096, -0.059203, 0.024441, -0.005481, 0.059732, 0.009940, -0.025269, -0.068047, 0.017083, 0.002606, -0.021329, -0.053638, 0.070428, 0.009241, -0.012831, -0.014594, 0.068890, 0.043169, -0.016118,
-0.337759, 0.035466, 0.093156, 0.069594, -0.280891, -0.210442, 0.154397, -0.168115, 0.287376, 0.323082, -0.269942, -0.058106, 0.375243, -0.321205, -0.205634, 0.287497, -0.456539, -0.028103, -0.315343, 0.052389, 0.205494, 0.215937, 0.159505, -0.392081, 0.073747, 0.225292, 0.320254, -0.213096, 0.411074, -0.474073,
-0.058875, 0.016743, 0.267898, -0.195943, -0.564614, 0.536186, -0.276599, -0.249307, -0.149013, 0.045414, -0.121843, -0.264999, 0.884850, -0.312815, -0.206865, -0.315091, 0.074323, 0.365057, 0.153770, 0.167387, -0.393449, -0.173370, 0.480330, -0.068106, 0.419420, -0.064683, 0.049331, 0.221710, -0.276787, 0.475786,
0.292903, -0.045550, -0.192084, 0.434886, -1.039214, -1.071369, 0.450731, 0.184197, 0.213631, -0.374755, 0.605532, -0.294283, 0.856930, -0.297171, 0.474810, -0.307714, 0.360738, 0.592002, 0.235209, 0.931674, 0.043362, 0.076747, 0.329783, -0.322309, 0.709949, -0.002402, -0.029248, -0.372697, 0.036598, -0.517979,
0.593106, -0.277591, 0.100975, 0.131288, -0.535968, -0.518575, 0.286689, 0.298375, 0.454496, 0.391688, 0.136035, -0.307022, 0.508825, -0.127517, 0.196738, -0.086965, 0.280354, 0.424834, 0.243253, 0.579785, 0.289955, 0.256895, 0.211274, -0.092774, 0.514588, 0.272123, 0.408514, 0.439121, -0.162996, -0.611432,
0.189001, -0.433160, 0.294022, -0.370008, -0.502129, -0.206096, 0.263165, 0.147372, 0.302870, 0.105836, -0.060777, 0.029557, 0.516325, -0.064018, 0.092863, 0.321503, 0.505438, 1.068770, -0.178356, 0.228392, 0.281943, 0.166535, 0.511398, -0.373107, 0.145716, 0.620397, -0.123605, -0.087724, 0.134585, 0.181166,
-0.089859, -0.282759, -0.050755, 0.206882, -0.371769, -0.248803, 0.485015, 0.315934, -0.017202, 0.100403, 0.145318, 0.090584, 0.570779, 0.045559, 0.106640, 0.047386, 0.262573, 0.603736, -0.068578, 0.409664, 0.368687, -0.041162, 0.259275, -1.124639, 0.234910, 0.223190, -0.172281, 0.093385, 0.152709, 0.073233,
0.203842, -0.402437, -0.205844, -0.155270, -0.127872, 0.073532, 0.305742, 0.316446, -0.192134, 0.255605, -0.129669, 0.387409, 0.032950, -0.221468, -0.124992, 0.133603, 0.064343, 0.058103, 0.293122, 0.081321, 0.070744, -0.162967, 0.271133, -1.168897, -0.031736, 0.013024, -0.086806, -0.337182, 0.370777, -0.074251,
0.305251, -0.194514, 0.105287, 0.091597, -0.101853, 0.106810, -0.019787, 0.180099, -0.159309, -0.078225, -0.364916, 0.282669, 0.219873, -0.197379, -0.321680, 0.135244, 0.331652, 0.237944, -0.016070, 0.240961, -0.156129, -0.064748, 0.339962, -0.726108, 0.145534, -0.253851, -0.265430, -0.506987, 0.344974, -0.024992,
0.408163, -0.178713, 0.002693, 0.137647, -0.232559, 0.013943, 0.126829, -0.017256, 0.178142, -0.129392, -0.062966, 0.087770, 0.009544, -0.161555, -0.430861, -0.082808, -0.009514, 0.294250, 0.154661, 0.238778, 0.081609, -0.096444, 0.242625, -0.519029, 0.606480, -0.263567, -0.305130, -0.487125, 0.341435, -0.275285,
-0.175365, -0.008172, -0.076510, 0.380857, -0.423881, -0.079987, 0.010207, 0.216203, -0.049664, 0.076101, 0.111141, -0.025321, 0.225065, 0.091987, -0.060675, -0.006345, -0.316838, -0.070489, -0.045130, 0.336467, 0.135463, -0.235697, 0.160804, -0.229464, 0.563194, -0.436080, -0.074210, -0.434400, 0.074643, -0.077792,
-0.082139, -0.060092, 0.070776, 0.344166, -0.176620, -0.136029, -0.150715, 0.402614, -0.191393, 0.132356, 0.269185, 0.127076, -0.072029, 0.008029, -0.200229, -0.068965, -0.258921, -0.115506, 0.061122, 0.261376, 0.244070, -0.141528, 0.287379, 0.021991, 0.263118, -0.264192, -0.135771, -0.228013, -0.098465, 0.339178,
-0.135101, -0.139617, 0.102400, 0.270773, -0.181298, -0.086266, -0.080079, 0.080300, -0.028187, 0.137785, 0.236848, 0.174321, -0.083328, -0.145158, -0.290065, -0.065175, -0.068604, -0.087694, 0.185289, 0.042415, 0.112088, -0.217255, 0.164134, 0.005735, 0.221882, -0.590948, 0.009237, -0.340776, -0.170593, 0.276393,
-0.350919, 0.137276, 0.239326, 0.586990, -0.407935, -0.333351, -0.265610, -0.007290, -0.302902, 0.052521, 0.230505, 0.092606, -0.021688, -0.002729, 0.237557, 0.018860, -0.068093, -0.073681, 0.336283, 0.203763, 0.233928, -0.327431, 0.072119, -0.161055, 0.095361, -0.521550, 0.149998, -0.453921, -0.130116, 0.108344,
-0.164438, 0.223218, 0.149226, 0.307411, -0.274538, -0.230560, -0.295622, -0.183015, -0.571875, 0.145286, 0.293610, 0.203909, 0.002332, 0.199450, 0.482209, -0.165250, -0.051187, -0.401862, 0.237340, 0.128989, -0.097987, -0.294248, -0.136433, -0.053138, -0.054183, -0.550916, -0.072225, -0.258605, -0.234596, -0.006341,
0.053545, 0.124413, 0.147357, 0.361173, -0.138512, 0.008161, -0.218032, -0.161448, -0.555550, 0.192412, 0.278507, 0.044577, -0.004151, 0.101398, 0.358055, -0.035174, -0.325886, -0.766634, 0.169749, 0.013204, -0.329986, 0.051330, 0.080325, -0.137327, 0.108926, -0.417930, -0.081732, -0.214835, -0.103882, -0.052902,
0.218986, 0.196473, -0.062908, 0.282185, -0.173784, -0.238107, -0.313589, -0.162678, -0.160817, 0.225088, 0.364243, -0.044513, -0.081336, 0.068168, 0.377653, 0.150860, -0.249072, -0.701785, 0.076031, 0.239319, -0.119852, 0.157455, 0.080104, -0.377329, 0.327493, -0.392427, -0.002034, -0.087958, -0.128924, -0.060630,
0.219332, -0.081407, -0.122980, 0.114507, 0.167363, -0.075512, -0.255662, -0.368972, 0.190274, 0.108273, 0.148466, 0.083789, -0.139221, -0.039630, 0.485298, -0.088363, 0.091993, -0.221027, 0.028653, 0.165448, -0.028628, -0.143889, 0.042215, -0.055682, 0.231123, -0.527047, -0.138119, -0.351772, -0.244243, 0.196533,
-0.184009, 0.223034, -0.184951, 0.171074, -0.135738, -0.008032, -0.369850, -0.167492, 0.338240, 0.359370, 0.329043, -0.067413, -0.028294, 0.010892, 0.528300, -0.284540, -0.108916, -0.236895, -0.377343, 0.248592, -0.003832, -0.142114, 0.010391, -0.238368, 0.281332, -0.567457, 0.033936, -0.170470, -0.366629, 0.223780,
-0.250755, 0.030790, -0.095794, -0.155748, -0.072326, 0.287544, -0.409436, -0.325225, 0.128210, 0.144382, -0.116752, 0.096665, 0.016414, -0.127760, 0.265930, 0.061113, -0.171444, -0.287611, -0.368707, 0.081055, -0.255924, -0.008868, -0.074934, 0.123203, 0.448304, -0.420321, 0.104481, -0.347802, -0.307646, 0.146219,
-0.321309, -0.049470, -0.026403, -0.334168, 0.037658, 0.153622, -0.270914, -0.275488, 0.315622, 0.214372, -0.216109, -0.003871, 0.069399, -0.290035, 0.170876, 0.100358, -0.080780, -0.213386, -0.143947, 0.133666, -0.253728, -0.079929, -0.291654, 0.237444, 0.368950, -0.389365, -0.246607, -0.040383, -0.323428, 0.044813,
-0.022269, 0.003915, 0.126879, 0.193865, 0.019985, 0.229802, -0.105067, -0.273295, 0.214080, -0.064990, 0.012459, -0.053825, 0.083040, 0.070260, 0.531355, -0.030329, -0.152527, 0.096973, 0.236673, 0.166405, -0.109889, -0.410628, -0.136840, 0.009640, 0.025261, -0.394168, -0.330645, 0.061344, -0.043013, 0.134667,
-0.394404, -0.138779, 0.019912, -0.052861, 0.038716, 1.066242, -0.525150, -0.409627, -0.068139, -0.164734, -0.340381, -0.069144, 0.040241, -0.135131, 0.120220, -0.142108, -0.189072, 0.307473, 0.264088, 0.110214, -0.120567, -0.556001, 0.154400, 0.072315, -0.241584, 0.078049, -0.164117, 0.343721, 0.128481, 0.102676,
-0.650500, -0.325366, 0.141718, -0.811922, 0.375138, 1.217864, -0.308098, -0.243846, -0.229525, -0.147458, -0.246171, -0.060672, 0.189395, -0.404780, -0.143537, -0.245033, -0.280585, 0.204609, -0.119370, 0.098737, -0.319680, -0.312147, -0.000149, 0.170266, -0.095728, 0.274466, 0.008124, 0.171012, 0.112419, -0.043552,
-0.406212, 0.166037, 0.595726, -1.260428, 0.112854, 0.881754, -0.710588, -0.452118, -0.474787, 0.163320, -0.401689, 0.280231, 0.633011, -0.331978, -0.521758, -0.117619, -0.380608, 0.060859, -0.584478, 0.531635, -0.559489, -0.192560, 0.166576, 0.511867, 0.147403, 0.307415, -0.089164, 0.399628, -0.327741, -0.312779,
-0.549627, -0.128567, 0.785747, -0.796707, 0.214293, 1.023791, -0.574067, -0.938823, -0.552655, 0.387125, 0.536626, 0.564579, 0.876382, -0.796534, -0.578875, 0.127017, -0.186235, 0.225840, -0.335817, 0.658351, -1.346537, 0.445857, 0.049922, 0.905510, -0.134623, -0.281778, 0.613646, -0.387502, -0.173410, -0.263224,
0.090951, -0.194315, 0.074387, -0.090187, 0.307707, 0.600560, -0.760821, -0.049376, -0.975545, 0.031095, -0.009831, 0.524732, 0.933238, -0.029189, -0.889998, 0.362073, 0.196659, 0.524054, -0.276000, 0.396039, -0.402147, -0.042491, 0.999018, 1.050992, -0.107925, 0.125337, -0.394604, 0.020733, -0.586457, -0.239906,
-0.475090, -0.505847, -0.036793, -0.006546, 0.233360, 0.194611, 0.034351, 0.320477, -0.083229, 0.403083, -0.059716, 0.421053, 0.872430, -0.457515, -0.656718, -0.169029, -0.077774, 0.269372, 0.156171, 0.438036, -0.355334, 0.316990, 0.232331, 0.500183, -0.340260, -0.256949, 0.652479, 0.418685, -0.295205, -0.438209,
-0.076172, 0.015528, 0.011464, -0.044110, 0.034662, -0.031296, -0.036019, 0.041414, -0.093740, -0.075552, -0.043342, 0.039240, 0.049341, 0.007345, 0.050963, -0.042013, -0.004680, 0.010512, 0.101527, -0.025037, 0.093000, -0.048913, -0.036140, 0.050283, 0.073358, 0.074938, 0.045150, 0.058170, -0.074700, -0.066045,
0.149837, -0.400308, 0.720923, 0.420142, -0.681287, -0.623769, 0.572998, -0.380887, 0.274740, 0.598488, -0.689308, -0.496343, 0.840868, -0.893324, 0.346303, 0.398151, -0.553840, 0.436115, -0.627711, 0.496484, 0.664382, 0.368954, 0.573817, -0.781337, 0.623255, 0.282464, 0.398774, -0.517919, 0.603502, -0.834787,
0.510973, -0.081669, -0.190110, 0.451160, -0.597937, 0.493354, -0.294348, -0.054164, 0.068188, -0.420011, 0.028687, 0.038890, 0.811768, 0.079866, -0.118126, -0.330220, 0.562740, 0.430893, 0.690170, -0.302621, -0.213076, -0.006378, 0.552568, -0.517689, 0.576006, -0.408919, -0.324699, 0.246179, -0.320856, 0.546684,
0.516299, -0.379064, 0.005151, 0.386932, -0.954443, -0.811306, 0.212421, 0.302845, 0.428052, -0.692040, 0.420013, -1.026234, 0.829546, 0.057063, 0.328486, 0.155129, 0.047740, 0.876222, 0.312196, 0.676113, 0.149496, -0.396900, 0.807320, -1.038800, 0.786042, -0.169099, -0.757587, -0.386298, -0.259715, 0.362880,
0.237188, -0.598461, -0.126920, -0.325337, -0.658136, -0.869171, 0.275376, 0.293391, 0.709255, 0.288738, 0.296469, -0.259030, 0.361430, 0.061872, -0.314101, 0.179407, 0.013673, 0.376005, 0.234710, 0.492955, 0.232108, 0.088620, 0.309713, -0.348261, 0.738468, 0.336573, 0.268470, -0.187374, -0.015545, -0.595686,
0.038474, -0.090766, 0.142369, -0.359386, -0.533609, 0.027358, 0.079530, -0.415946, 0.224104, -0.080557, -0.301827, 0.026172, 0.468394, -0.152138, -0.742908, -0.095917, 0.275625, 0.863754, -0.147982, 0.057844, -0.216604, -0.416314, 0.622910, -0.708346, -0.007410, 0.584540, 0.332943, -0.098827, 0.220179, 0.067412,
0.490243, -0.315303, -0.111863, 0.246641, -0.228645, -0.033057, 0.145121, 0.112460, 0.480338, 0.115948, 0.211166, 0.130810, 0.300809, 0.248237, -0.269823, 0.090310, 0.336104, 0.512060, 0.082415, 0.009255, 0.251083, -0.153015, 0.405193, -1.279974, 0.302320, -0.100455, 0.054726, -0.104461, 0.177030, 0.170306,
0.291449, -0.522879, -0.199125, 0.120240, -0.046192, 0.170306, -0.095740, 0.497260, 0.198122, 0.209530, -0.093391, -0.154226, 0.250849, -0.081116, -0.016089, 0.054549, 0.033752, 0.131184, -0.147273, -0.107987, 0.160342, -0.146688, 0.039897, -1.044130, -0.057793, -0.024165, 0.061378, -0.407913, 0.374907, 0.098827,
0.053614, -0.213552, 0.084933, 0.240146, -0.345395, 0.478790, -0.270327, -0.179387, -0.015939, -0.092385, -0.017743, 0.050249, 0.292333, 0.128666, -0.427710, 0.233199, 0.035330, -0.078774, -0.083396, 0.235008, -0.153447, 0.020730, 0.346726, -0.902138, 0.521460, -0.358633, 0.276760, -0.460688, 0.323400, 0.101934,
0.076257, -0.194214, 0.043882, 0.090173, -0.324663, 0.229340, 0.015870, -0.091567, 0.086624, -0.190024, -0.014135, 0.018066, 0.121610, 0.108937, -0.350681, 0.090702, 0.142478, 0.116005, 0.044474, 0.016041, 0.095208, -0.068180, 0.253651, -0.138724, 0.256906, -0.255941, -0.216718, -0.399866, 0.265241, -0.007362,
-0.265791, 0.055101, -0.027009, 0.233848, -0.188999, 0.085225, -0.168369, 0.126565, 0.041434, 0.031439, 0.206361, 0.030928, 0.224801, 0.041575, -0.228433, -0.043749, -0.376256, 0.178242, 0.061539, 0.064110, 0.132874, -0.036694, 0.213722, 0.191175, 0.134459, -0.217334, -0.130283, -0.489438, -0.083946, 0.020232,
-0.006966, 0.030088, 0.010744, 0.248823, -0.201061, 0.067226, -0.375687, 0.187183, 0.156663, 0.115865, -0.068238, 0.087243, -0.037546, 0.059982, -0.400685, -0.075214, -0.244288, 0.068830, 0.026144, 0.116961, 0.197843, -0.154701, 0.254379, 0.164450, 0.020995, -0.260111, 0.081306, -0.116057, -0.198873, 0.247278,
-0.101997, 0.098288, -0.148950, 0.346931, -0.304296, -0.207280, -0.304954, 0.111488, 0.023204, 0.008791, 0.121786, 0.056455, -0.022115, 0.035364, -0.031864, -0.142687, -0.314667, -0.002801, 0.196055, 0.362232, 0.156659, -0.171655, 0.186046, 0.097199, 0.124373, -0.513323, -0.007815, -0.215676, -0.438855, -0.067199,
0.083759, 0.317303, -0.149453, 0.384069, -0.356096, -0.287365, -0.136826, 0.165099, 0.006054, -0.204009, 0.217681, 0.109137, -0.119276, 0.261233, 0.080003, -0.390898, -0.357486, -0.240059, 0.330693, 0.311655, -0.025922, -0.388817, 0.112960, -0.138143, -0.101722, -0.517740, -0.112987, -0.360691, -0.425251, -0.020808,
-0.072464, 0.307576, 0.221489, 0.192495, -0.374108, -0.124637, -0.086172, 0.013709, -0.551580, -0.042725, 0.227026, -0.163019, -0.180903, 0.168976, 0.261315, -0.193048, -0.322532, -0.563196, 0.079966, 0.552719, -0.123981, -0.236777, 0.031170, -0.193976, -0.338155, -0.264742, 0.064510, 0.064288, -0.412259, -0.327167,
0.081148, -0.056467, -0.008585, 0.095458, -0.227827, -0.015800, -0.003787, -0.155898, -0.675792, -0.119100, 0.405173, -0.066107, -0.183169, -0.055253, 0.446341, -0.001795, -0.270576, -0.702491, 0.176293, -0.043825, -0.341084, -0.190574, 0.367239, -0.225594, -0.363139, -0.439150, 0.177941, -0.247204, -0.210889, 0.048515,
0.084628, 0.012445, -0.006455, -0.127365, -0.290773, 0.124292, -0.194845, -0.128725, 0.006453, -0.336276, 0.288992, -0.055878, -0.128915, 0.231765, 0.595397, 0.043572, -0.080904, -0.532453, -0.102845, 0.111689, 0.003678, -0.075776, 0.169693, -0.410015, 0.076160, -0.603275, 0.143834, -0.183832, -0.432074, 0.175522,
0.137353, -0.004065, -0.056504, -0.203276, -0.049223, 0.205903, -0.072200, -0.295055, 0.564773, -0.481042, -0.025073, -0.003412, 0.026796, -0.011159, 0.584755, -0.069962, 0.010806, -0.066084, -0.262796, -0.048642, 0.094061, -0.308097, 0.250827, -0.210119, -0.093690, -0.210198, -0.182933, -0.181689, -0.275938, 0.242578,
-0.274910, -0.203239, -0.097154, -0.286995, -0.225493, 0.133448, -0.140957, -0.140490, 0.617765, -0.102155, 0.244275, 0.064008, 0.082033, -0.022844, 0.566798, -0.051197, -0.162254, 0.160222, -0.256847, -0.021528, -0.157338, -0.397911, 0.272276, -0.026990, -0.005309, -0.502330, 0.132751, -0.266923, -0.296432, 0.302861,
-0.158133, -0.147253, -0.148771, -0.494504, -0.209692, 0.129244, -0.307620, -0.320091, 0.555500, -0.127754, 0.039476, -0.153057, 0.100800, -0.047436, 0.312837, 0.104100, -0.196175, 0.013320, -0.282333, -0.079043, 0.079005, -0.413116, -0.057724, 0.101720, 0.219476, -0.358016, -0.031738, -0.084145, -0.152483, 0.162705,
-0.113000, -0.243721, 0.190255, -0.226090, -0.192074, 0.153156, -0.147760, 0.014788, 0.397198, -0.397832, -0.126706, -0.260418, 0.187142, -0.089383, 0.253596, 0.082079, -0.134033, -0.135938, -0.132519, 0.220549, 0.008044, -0.487403, -0.184845, 0.062939, 0.138839, -0.313897, -0.203415, -0.066327, -0.358056, 0.128625,
-0.445729, -0.147239, 0.014270, -0.322979, -0.003657, 0.675369, -0.095989, -0.111949, 0.063192, -0.537911, 0.004105, 0.088311, 0.080937, 0.305288, 0.192219, -0.152969, -0.000052, -0.130659, 0.137722, 0.223543, -0.223103, -0.402386, -0.217871, 0.093909, 0.003230, -0.432807, -0.200835, -0.056919, -0.267283, 0.241511,
-0.572652, 0.066214, -0.206990, -0.383977, -0.172914, 1.172755, -0.113997, -0.343468, 0.200505, -0.387341, 0.052196, 0.134329, 0.181352, 0.099192, 0.013293, -0.244666, -0.135760, -0.080751, 0.051768, 0.080396, -0.253275, -0.682259, -0.121762, 0.241787, 0.223394, -0.047359, 0.010885, -0.084021, 0.131854, -0.007990,
-0.467427, -0.321952, -0.009671, -0.603578, -0.022732, 1.496953, 0.309847, -0.373642, -0.108660, -0.271352, -0.333118, -0.439641, 0.176696, -0.125075, 0.063721, -0.125831, -0.119429, 0.013951, -0.120263, 0.003964, -0.469152, -1.015683, 0.274512, 0.105800, -0.001020, 0.100221, -0.256089, -0.049565, -0.038588, 0.454659,
-0.201531, 0.306692, 0.149540, -0.698918, 0.181221, 1.806853, -0.348393, -0.332656, -0.599325, 0.064011, -0.288226, 0.023325, 0.571767, 0.006549, -0.345275, -0.129029, 0.226102, -0.023051, -0.171914, 0.104752, -1.002043, 0.125947, -0.036165, -0.106643, 0.056366, 0.257013, -0.190979, 0.077908, 0.083458, 0.129803,
-0.149035, 0.604022, 0.428278, -0.651372, -0.122076, 1.198965, -0.468748, -0.994542, -1.080085, 0.045796, 0.261048, 0.193167, 0.608739, -0.259516, -0.355846, 0.257990, 0.338348, 0.127590, -0.151253, 0.848086, -1.003395, 0.787186, 0.067597, 0.177104, -0.101812, 0.108886, 0.134839, 0.251998, 0.070165, -0.236391,
0.310296, 0.127084, 0.211268, -0.733547, -0.067543, 0.799472, -0.713419, -0.139422, -0.818259, -0.070466, -0.203923, 0.142417, 0.644895, -0.092627, -0.425781, 0.459063, 0.165256, 0.599324, -0.495313, 0.692576, -0.980444, 0.165528, 0.903125, 0.957819, -0.255699, 0.352884, -0.436491, 0.346158, -0.455762, -0.299398,
-0.748472, -0.324914, -0.033693, 0.168783, -0.005909, 0.292656, 0.198438, 0.295267, 0.212376, 0.406954, 0.016229, 0.365580, 1.208409, 0.043703, -0.178855, -0.139280, 0.089124, 0.468743, 0.038777, 0.688588, -0.573547, -0.005760, 0.519414, 0.529410, -0.242081, -0.372169, 0.785909, -0.246569, -0.350745, -0.245265,
-0.443259, 0.386702, 0.432293, 0.539548, -0.408529, 0.412753, 0.005471, -0.470116, 0.219571, 0.202375, -0.441125, -0.558473, -0.363360, 0.529718, 0.381472, -0.258758, -0.424882, 0.534383, -0.402915, -0.180739, -0.294348, -0.486914, 0.436764, -0.352011, -0.424862, 0.200163, 0.476548, -0.017043, 0.516137, 0.271802,
0.657803, -0.804091, 0.678970, 0.631219, -0.679936, -0.529304, 0.161742, 0.405744, 0.403488, -0.352216, -0.150541, 0.272723, 0.795664, -0.683509, 0.401271, -0.733960, 0.162627, 0.574136, 0.127622, 0.174445, 0.091240, 0.486648, -0.241330, -0.741848, 0.690293, 0.394613, -0.067785, -0.483147, -0.009257, -0.308257,
0.147424, -0.143036, -0.060206, 0.213100, -0.726824, 0.648217, 0.153121, -0.081410, 0.158030, -0.163286, -0.358916, -0.037728, 0.804952, 0.313775, -0.406116, 0.158407, 0.541441, -0.077157, 0.137957, -0.490893, 0.211730, -0.305592, 0.405428, -0.539820, 0.201070, 0.308199, -0.495571, 0.329670, 0.011133, 0.631432,
0.042115, -0.335207, -0.124150, 0.238345, -0.945530, -0.972897, 0.311397, -0.000358, 0.031066, -0.216309, 0.193918, -0.627970, 0.608333, 0.168536, -0.193825, 0.387577, -0.359724, 0.328638, 0.382282, -0.164950, 0.137408, -0.987960, 0.750424, -0.501735, 0.232951, 0.224784, -0.420212, -0.251622, 0.277941, 0.648401,
0.368576, -0.456606, -0.370411, 0.071097, -0.618116, -0.774238, 0.061779, 0.117596, 0.379310, 0.172006, 0.606480, -0.322324, 0.436625, -0.186781, -0.788301, -0.042949, -0.171891, 0.155736, 0.563655, 0.199924, 0.177052, -0.091439, 0.270463, -0.283756, 1.048473, 0.338301, -0.223257, -0.485454, 0.117752, -0.392917,
0.578195, -0.105710, -0.099821, -0.068948, -0.106929, -0.001502, -0.216806, -0.022025, 0.040558, 0.168661, 0.147116, -0.074670, 0.177245, -0.146337, -0.654742, -0.050313, 0.140161, 0.451453, -0.017656, 0.054054, -0.161348, -0.338439, 0.419938, -0.445182, 0.419448, 0.121013, -0.100276, -0.308427, -0.000791, 0.153142,
0.222985, 0.072995, -0.254487, 0.179369, 0.103491, 0.205281, -0.062576, 0.265132, -0.036563, 0.285418, 0.228833, -0.064328, 0.099104, -0.331253, 0.042344, 0.296728, 0.396081, 0.199546, 0.044977, -0.096180, 0.110293, -0.143663, 0.116979, -0.554711, 0.259126, -0.111344, -0.089704, -0.351877, 0.293722, 0.332159,
-0.006967, -0.394603, -0.307156, 0.126745, -0.052910, 0.091779, 0.131921, 0.133769, 0.124882, 0.003440, 0.098792, -0.220028, 0.311555, -0.224852, -0.007544, -0.010868, 0.083192, 0.385872, -0.110086, -0.331285, 0.362571, -0.025680, -0.066511, -1.113315, 0.290118, -0.190063, -0.291077, -0.834990, 0.305572, 0.341075,
0.140518, -0.226042, -0.285511, 0.226698, -0.224712, 0.325349, -0.142502, -0.115698, -0.055080, -0.260583, 0.129976, 0.017713, 0.244354, -0.085108, -0.289109, 0.056863, -0.057159, 0.121265, 0.199257, 0.088690, 0.074324, -0.143660, 0.107522, -0.773032, 0.187175, -0.471360, -0.251573, -0.665702, -0.145048, 0.405426,
0.084308, 0.079895, -0.137842, 0.296743, -0.255046, 0.326226, -0.253390, -0.151252, -0.198660, -0.215840, -0.008219, 0.130022, 0.149988, 0.180689, -0.239172, 0.115197, 0.207632, 0.318376, -0.023982, -0.159837, 0.071712, -0.189270, 0.080565, 0.002958, -0.022756, -0.347714, -0.205430, -0.645320, 0.052713, 0.284369,
0.088087, -0.030306, -0.018486, 0.435995, -0.291015, 0.062889, -0.074985, -0.021918, 0.111108, -0.008315, 0.220441, 0.047063, 0.176886, 0.201616, -0.146885, -0.098184, -0.269490, 0.281652, -0.019936, 0.058527, 0.148691, 0.065340, -0.009942, 0.137146, 0.103474, -0.203184, 0.042796, -0.383087, 0.047736, -0.003477,
0.106090, 0.045622, -0.180905, 0.362142, -0.280223, 0.307277, -0.374479, 0.201475, 0.246505, -0.010424, 0.204706, 0.019338, 0.203370, -0.023170, -0.286061, -0.185784, -0.141597, 0.264306, 0.186663, 0.204794, -0.065032, 0.165332, 0.114719, 0.240405, 0.281786, -0.337908, -0.135640, -0.254601, -0.246362, 0.088184,
-0.078465, -0.067151, 0.094982, 0.267594, -0.243835, -0.107756, -0.193693, -0.031937, 0.311210, 0.075866, 0.160135, -0.364208, 0.138057, 0.106054, -0.368562, -0.078619, -0.369280, 0.268690, 0.148210, -0.007896, -0.195979, -0.123838, 0.022890, 0.265276, -0.007984, -0.486589, -0.111973, -0.323101, -0.083328, 0.024547,
0.102631, -0.090541, 0.037651, 0.023990, -0.142520, -0.408751, 0.223379, 0.059395, -0.286045, -0.013556, 0.544488, -0.227195, 0.063494, 0.049151, -0.320326, -0.412262, -0.374378, 0.023838, 0.138285, 0.264789, -0.415252, -0.188110, -0.199171, 0.305748, -0.214257, -0.536341, 0.068345, -0.090414, -0.263877, -0.302726,
0.182902, -0.104094, 0.349676, 0.128213, -0.547407, -0.165509, 0.168895, 0.077640, -0.754119, -0.198858, 0.535062, -0.073144, 0.006492, 0.236650, 0.146692, -0.363280, -0.276742, -0.366862, 0.229022, 0.466985, -0.330828, -0.179915, 0.037639, -0.094711, -0.342803, -0.471665, -0.030946, 0.139493, -0.253788, 0.055340,
0.119085, 0.068725, 0.312748, -0.030836, -0.663367, -0.187157, 0.193894, 0.103545, -0.635385, -0.342940, 0.267502, -0.118700, 0.034010, 0.383361, 0.281462, -0.122973, -0.227391, -0.573549, 0.043270, 0.320694, 0.222345, -0.247313, -0.034025, -0.324012, -0.495897, -0.501115, -0.142295, 0.068020, -0.144700, 0.070000,
-0.087851, 0.293056, -0.128612, -0.125063, -0.377015, 0.015556, 0.230568, -0.297773, 0.420761, -0.290655, 0.083967, -0.151474, 0.035612, 0.449652, 0.537110, -0.130763, -0.184554, -0.515860, -0.173934, -0.161915, -0.077346, -0.446694, 0.169956, -0.503429, -0.193833, -0.632937, 0.108108, -0.312065, -0.167582, 0.322885,
-0.171055, 0.207207, -0.174023, -0.024815, -0.322867, -0.071970, 0.218381, -0.216036, 0.683758, -0.043367, 0.012270, -0.120747, 0.201597, 0.458981, 0.515721, -0.196205, -0.170731, -0.160905, -0.396923, -0.058322, 0.253755, -0.192038, 0.013944, -0.167622, -0.102408, -0.239118, -0.173520, -0.215607, -0.338620, 0.132561,
-0.234976, 0.043284, -0.238780, 0.133879, -0.220105, -0.088663, 0.362858, -0.339181, 0.680751, -0.229912, 0.046703, -0.347624, 0.106947, 0.174688, 0.458907, 0.083282, -0.494501, 0.023363, -0.021634, -0.209757, 0.035755, -0.653040, 0.486155, -0.015729, 0.237363, -0.442429, -0.055160, -0.205022, -0.195074, 0.438901,
-0.160724, 0.049121, -0.237692, -0.093567, -0.321937, -0.117875, 0.451513, -0.264284, 0.413159, -0.026593, -0.089306, -0.261184, 0.189684, 0.257277, 0.258959, -0.051131, -0.528770, -0.107074, -0.141736, -0.059623, -0.009286, -0.421270, 0.053721, 0.148995, 0.178359, -0.201690, 0.172633, -0.170526, -0.212798, 0.173395,
-0.087578, -0.162533, 0.179505, -0.224461, -0.235907, 0.240532, 0.498099, -0.237701, 0.183964, -0.215061, -0.194665, -0.414376, 0.314973, 0.214593, 0.294601, -0.140546, -0.331015, 0.165617, -0.074147, -0.142876, -0.117521, -0.456831, 0.009787, 0.065290, 0.014794, -0.054785, 0.164508, -0.021829, -0.306455, 0.345145,
-0.221654, 0.124229, -0.126036, -0.119618, -0.099298, 0.529591, 0.580521, -0.469775, 0.138460, -0.474582, -0.088761, -0.274725, 0.055670, 0.173455, 0.229433, 0.073519, -0.307709, 0.056309, 0.020697, 0.248156, -0.197313, -0.547195, 0.107883, 0.193627, 0.048166, -0.252938, 0.050877, -0.129005, -0.290073, 0.259098,
-0.334213, -0.220686, -0.231444, -0.006468, -0.277950, 1.088499, 1.186968, -0.318087, 0.366290, -0.284859, 0.171696, -0.409021, 0.401122, -0.027433, 0.141430, -0.112654, -0.286987, 0.171213, -0.019755, -0.068991, -0.161345, -0.468486, 0.228756, 0.011553, 0.274767, -0.257184, 0.097366, -0.192897, -0.134038, 0.051857,
-0.617160, -0.231637, 0.229912, -0.347691, -0.260232, 2.139754, 0.664359, -0.094045, 0.281590, -0.304307, -0.044361, -0.449124, 0.628773, 0.430814, 0.131982, -0.059266, -0.019250, 0.470364, -0.070205, 0.051162, -0.650124, -0.243597, 0.425192, 0.079533, 0.361824, 0.116476, -0.071315, -0.211700, -0.108079, 0.450576,
-0.637063, 0.314760, 0.236368, -0.576766, 0.571866, 2.164468, 0.675258, -0.287070, -1.200325, -0.620140, -0.177720, -0.362787, 1.044867, 0.591271, -0.388595, 0.631086, 0.158897, 0.036745, -0.299692, -0.286470, -1.304760, -0.199929, 0.429791, 0.404029, 0.786024, -0.154635, -0.142480, 0.286573, -0.354840, 1.287186,
-0.273666, 0.430746, 0.105671, -0.895510, 0.076362, 1.398896, 0.698644, -0.803435, -1.665436, -0.376365, 0.101002, -0.049872, 0.968924, -0.246863, -0.774992, 0.823217, 0.294428, 0.103873, -0.224326, -0.186622, -0.980060, 0.066084, 0.666560, 1.311515, 0.615538, 0.472535, -0.112401, 0.659199, -0.453472, 0.732308,
-0.082969, -0.411064, -0.152480, -0.056266, -0.015991, 0.550908, 0.068184, -0.781636, -0.937358, 0.823538, 0.603178, -0.175619, 1.127721, -0.144536, -0.218218, 0.898383, -0.606622, 0.080698, -0.344963, 0.687581, -0.920841, -0.293284, 0.632698, 1.028234, 0.311604, -0.133314, 0.090821, -0.695298, -0.181939, 0.005232,
-0.703022, 0.056750, -0.260008, 0.292418, 0.171759, 0.014308, 0.298247, -0.602750, -0.254435, 0.243867, 0.502322, 0.118923, 0.826336, -0.007435, -0.102688, 0.566371, -0.256995, -0.307449, -0.265563, 0.302337, -0.321884, -0.520463, 0.416264, 0.546548, 0.701389, -0.430383, 0.463062, -0.620694, -0.318771, 0.406869,
0.091301, -0.222331, 0.273763, 0.132349, -0.056604, -0.085847, 0.001982, 0.051309, -0.013961, -0.033494, -0.013823, -0.167309, 0.221659, 0.037916, 0.194364, -0.183431, 0.081259, 0.101454, 0.026619, -0.011727, 0.114069, -0.003721, 0.060999, -0.138676, 0.089744, 0.193290, -0.175215, -0.123795, -0.237616, 0.040506,
0.414498, -0.704604, 0.922435, 0.540825, -0.468699, -0.260505, 0.265074, 0.454334, -0.104488, -0.772318, 0.023522, -0.563972, 0.580072, -0.565528, 0.804908, -0.751262, 0.401497, 0.674295, 0.096498, 0.112633, 0.614544, 0.250488, 0.535937, -0.556939, 0.434002, 0.052702, -0.495994, -0.499589, -0.847286, -0.116095,
-0.216792, -0.136675, 0.122288, 0.550887, -0.848976, 0.467403, 0.112135, -0.119319, 0.100037, -0.168197, -0.091314, 0.223030, 0.721862, 0.060276, -0.352307, -0.050745, -0.076176, -0.037701, 0.413991, 0.234878, 0.201800, -0.230272, 0.360698, -0.780600, 0.320672, 0.273375, -0.019178, -0.263135, 0.125366, 0.038002,
0.048649, -0.092184, -0.062890, 0.769167, -0.621868, -0.803163, 0.717419, 0.029015, 0.011708, -0.266265, 0.385578, -0.094121, 0.909404, 0.286645, -0.266455, 0.057694, -0.279835, -0.043411, 0.786683, -0.087216, 0.272917, 0.087124, 0.168458, -0.851152, 0.746090, -0.211222, -0.439255, -0.153540, 0.266087, 0.404973,
0.267724, -0.500122, 0.574759, 0.247010, -0.067500, -0.707853, 0.068672, 0.545962, -0.167431, 0.420993, 0.526398, -0.375042, 0.844575, -0.018769, -0.654669, -0.170528, -0.527775, 0.395720, 0.298362, 0.359088, 0.279698, 0.182359, 0.134518, -0.403605, 1.025012, -0.220038, -0.403822, -0.261053, 0.500359, -0.367594,
0.433141, -0.354645, -0.019194, 0.205572, -0.110313, -0.435179, -0.334367, 0.224724, 0.130708, 0.387041, 0.553794, 0.087944, 0.271748, 0.055213, -0.176281, -0.034801, 0.181586, 0.344999, 0.168087, 0.048349, -0.086757, -0.071638, 0.239907, -0.622978, 0.752179, 0.175363, -0.253718, -0.485965, 0.444243, 0.077969,
0.074364, -0.213372, 0.011359, 0.209356, -0.130430, -0.177096, -0.229067, 0.178298, -0.222190, 0.016623, 0.615958, -0.010364, 0.216074, -0.081297, 0.079365, 0.486379, 0.205913, 0.242733, -0.008738, -0.192208, 0.295937, -0.364443, 0.205070, -1.188472, -0.026122, -0.284093, -0.286496, -0.536570, 0.219587, 0.180778,
-0.001474, -0.069078, 0.104300, 0.139892, -0.041407, -0.065476, -0.096854, 0.179137, -0.248624, 0.208637, 0.291383, -0.202467, 0.329151, -0.138018, -0.029944, 0.329871, -0.065359, 0.144627, -0.011649, 0.190041, 0.149204, -0.086672, 0.122464, -1.363748, -0.155883, -0.337212, -0.186464, -0.241225, 0.147946, 0.056345,
0.032929, -0.118675, -0.034998, 0.081269, -0.221120, 0.206774, -0.012995, 0.128178, -0.013667, 0.088854, 0.296472, 0.003583, 0.205530, -0.086419, -0.214032, 0.243740, 0.116445, 0.091164, -0.045767, 0.134726, -0.100419, -0.030442, 0.087397, -0.877691, -0.181372, -0.197153, -0.106437, -0.458052, -0.071205, -0.056289,
-0.119687, -0.131147, -0.082014, 0.086530, -0.177162, 0.284134, -0.106275, 0.180760, -0.122013, -0.045099, 0.380709, 0.083638, 0.261027, -0.052122, 0.121808, 0.175370, -0.083131, 0.133833, -0.033878, 0.027109, -0.142543, -0.423855, 0.172491, -0.082604, -0.157510, -0.525338, -0.337299, -0.283070, 0.023822, 0.122401,
0.138876, 0.113297, 0.077787, 0.391125, -0.046992, 0.294244, -0.266769, 0.067077, 0.117897, 0.053424, 0.504886, 0.213350, 0.041003, 0.035882, 0.122775, 0.088919, -0.060308, 0.249023, -0.068925, 0.000953, -0.148748, -0.113196, 0.287557, 0.033070, -0.016865, -0.658981, 0.011828, 0.174375, 0.018640, 0.219441,
0.004338, 0.115677, 0.071449, 0.350573, 0.370709, 0.450093, -0.255430, 0.108472, -0.115271, -0.217328, 0.287511, 0.006189, 0.193589, 0.045007, -0.313383, -0.000381, 0.060660, 0.449909, 0.034633, 0.053620, -0.243151, 0.120411, -0.027309, 0.455472, 0.253911, -0.475068, -0.025289, 0.004462, -0.237645, 0.354001,
0.368466, -0.033481, 0.185009, 0.446171, 0.243512, 0.127554, -0.119488, -0.152709, 0.065105, -0.245063, 0.366485, -0.761655, 0.198070, 0.011098, -0.207886, -0.234796, 0.069885, 0.440211, 0.099780, -0.082658, -0.220829, -0.007992, -0.195339, 0.386226, 0.094047, -0.493479, -0.154328, 0.005552, -0.270645, 0.088446,
0.316997, 0.027805, 0.779043, 0.291295, 0.291866, -0.275784, 0.412623, -0.040643, -0.271692, -0.277968, 0.427801, -0.733923, 0.322037, 0.338123, -0.231395, -0.396323, -0.141932, 0.173250, 0.129424, -0.084791, -0.232117, -0.244654, -0.208128, 0.404607, -0.081271, -0.634439, 0.039150, 0.215872, -0.142380, 0.087266,
0.406290, -0.035474, 0.836131, 0.539616, -0.324197, -0.681821, 0.698820, 0.381082, -1.314141, -0.089294, 0.326219, -0.390832, 0.201711, 0.169235, 0.135470, -0.580923, -0.165126, -0.316263, 0.168628, -0.048247, 0.181885, -0.011631, -0.056481, 0.240961, -0.385739, -0.520918, 0.069728, -0.020630, -0.395323, 0.021141,
0.090076, 0.091339, 0.067402, 0.133373, -0.753690, -0.570002, 0.850451, 0.372645, -0.904368, -0.276686, 0.163773, -0.109944, -0.058431, 0.282958, 0.442896, -0.275474, 0.067890, -0.602795, -0.175461, -0.099595, 0.596255, -0.286482, -0.049487, -0.235706, -0.511466, -0.226908, -0.134930, 0.119100, -0.300460, 0.152739,
-0.116798, 0.193328, -0.462021, 0.221962, -0.386351, -0.253987, 0.787273, 0.258872, 0.550754, -0.125397, 0.002815, 0.011803, 0.206913, 0.383064, 0.379335, -0.144448, -0.181518, -0.214176, -0.372016, -0.462033, 0.502755, -0.363092, -0.047148, -0.442639, -0.037606, 0.161927, -0.064994, -0.110063, -0.095798, 0.156686,
-0.276632, 0.274712, -0.293218, 0.511471, -0.282459, -0.374699, 0.832503, -0.030982, 0.729563, -0.280536, 0.279090, -0.251043, 0.389855, 0.575711, 0.533281, 0.177782, -0.292570, -0.051774, -0.245486, -0.441182, 0.318293, -0.313148, 0.291643, -0.444151, 0.152739, 0.082384, -0.353127, -0.290761, -0.369674, 0.280217,
-0.163571, 0.177245, -0.037817, 0.349425, -0.231010, -0.348348, 0.727549, 0.043345, 0.340448, -0.366325, 0.022877, -0.263218, 0.290306, 0.508271, 0.293239, -0.006673, -0.268397, 0.240382, 0.081735, -0.556782, 0.198508, -0.333821, 0.446089, -0.309465, 0.261520, 0.010227, -0.182806, -0.077388, -0.319581, 0.443347,
0.016748, 0.301360, -0.185961, 0.365590, -0.150810, -0.412171, 1.058777, -0.125220, 0.390300, -0.040167, -0.054169, -0.317966, 0.194646, 0.439743, 0.451677, -0.194728, -0.332027, 0.050298, 0.138591, -0.669576, -0.017253, -0.230161, 0.323918, -0.146786, 0.105546, 0.059506, 0.035912, 0.078788, -0.065376, 0.238600,
0.033536, 0.007908, -0.197821, 0.201901, -0.328995, -0.146290, 1.279297, -0.277673, 0.312811, -0.092717, 0.047484, -0.322120, 0.144694, 0.212220, 0.326974, -0.068048, -0.309807, 0.231985, 0.164048, -0.504069, 0.084733, -0.291566, 0.214214, -0.234286, 0.173933, 0.125102, -0.052490, 0.134651, 0.002615, 0.154045,
-0.142765, -0.012762, -0.118503, 0.191705, -0.105695, 0.421288, 1.319886, -0.206165, 0.302612, -0.074867, -0.090659, -0.406874, 0.046966, 0.183135, -0.059738, 0.219410, -0.360856, 0.276291, 0.033034, -0.482835, -0.147600, -0.221620, 0.024078, 0.172091, 0.312419, 0.197051, 0.207754, -0.238935, -0.081191, -0.031593,
-0.159274, -0.134849, -0.158573, 0.071983, -0.234576, 1.241367, 1.507875, -0.289093, 0.406828, -0.075280, -0.098914, -0.438590, 0.158742, -0.258310, 0.039836, 0.195531, -0.430983, 0.204808, -0.129683, 0.114130, 0.067978, 0.150489, 0.291879, -0.103859, 0.328750, -0.045211, 0.017495, -0.128766, -0.245765, -0.186896,
-0.437620, -0.462731, -0.069321, -0.031998, 0.081843, 1.956818, 1.303210, -0.582687, 0.235674, 0.151461, 0.020409, -0.324186, 0.404458, -0.014364, -0.073584, 0.238313, -0.166394, 0.384555, -0.100349, -0.019389, -0.561300, -0.100292, 0.374101, -0.135251, 0.042722, -0.070958, 0.076665, -0.521167, 0.187706, 0.371932,
-0.761218, 0.141065, 0.345744, 0.082775, 0.702675, 2.609558, 1.304150, -0.445959, -0.837611, -0.200170, 0.173642, -0.424788, 0.673755, 0.571116, -0.060610, 0.675866, 0.044221, 0.430516, -0.218257, -0.779907, -1.674639, -0.019155, 0.648340, 0.605467, -0.076177, 0.040857, -0.080893, 0.010179, -0.651569, 1.457444,
-0.991439, 0.635861, 0.171359, -0.287780, 0.249661, 1.173499, 0.887085, -0.775765, -1.548148, -0.091941, 0.229917, -0.752309, 1.868003, -0.122607, -0.483984, 1.019339, -0.753267, 0.392610, -0.582031, -0.285648, -1.159185, -0.044998, 0.664369, 1.543995, 0.378247, -0.093998, 0.384700, -0.498264, -0.750329, 0.490882,
0.019848, -0.278205, -0.061183, 0.364124, 0.375195, 0.281509, 0.330370, -0.108546, -1.411655, -0.364726, 0.770811, -0.716036, 1.412106, 0.170310, -0.500557, 0.648364, -0.539070, -0.409605, -0.506198, 0.024431, -0.948124, 0.267264, 0.717118, 0.993138, 0.916013, 0.114703, 0.606274, -0.553776, -0.811284, -0.221281,
0.391928, -0.229003, 0.664896, 0.478315, -0.540053, 0.457396, -0.229499, 0.391006, -0.453533, -0.455901, 0.047061, -0.556969, 0.786827, -0.427906, 0.346718, -0.314844, 0.274705, 0.231827, -0.099538, 0.371890, -0.335949, 0.090295, 0.712200, 0.451568, 0.640283, 0.287945, -0.082941, -0.812285, -0.513171, -0.210181,
0.131465, -0.280045, 0.276336, 0.159999, -0.048327, -0.113420, 0.083942, 0.031499, 0.014987, -0.114100, 0.040322, -0.058688, 0.213872, 0.022487, 0.122877, -0.332556, 0.132358, 0.090985, 0.090975, -0.190716, 0.190698, -0.001589, 0.121292, -0.166308, 0.010883, 0.165855, -0.167434, -0.221598, -0.201543, 0.095100,
0.106371, -0.678791, 0.909422, 0.249518, -0.040845, -0.107151, 0.207689, 0.499009, 0.185238, -0.940084, 0.048528, -0.659644, 0.706729, -0.624354, 0.804478, -0.637722, 0.716188, 0.533724, 0.330612, -0.411870, 0.953782, 0.410633, 0.288312, -0.289719, -0.047500, -0.051701, -0.765999, -0.425319, -1.015739, 0.216678,
-0.149270, -0.721907, 0.555332, 0.761256, -0.600028, -0.544037, -0.017766, 0.237914, -0.014001, -0.517205, -0.287161, -0.378087, 0.584473, 0.024844, 0.067138, -0.295337, -0.068595, 0.613840, -0.273808, 0.214923, 0.160797, -0.283598, 0.454408, -0.643969, 0.318973, -0.253281, -0.170229, -0.633426, 0.125803, 0.359401,
0.430505, 0.220095, 0.499025, 1.014350, -0.349572, -1.133495, 0.657199, -0.029162, 0.376474, -0.284523, 0.238593, -0.322588, 0.693791, 0.465488, -0.355390, 0.122009, -0.010559, -0.049050, 0.165276, 0.494859, 0.461593, 0.243202, 0.309547, -1.004189, 0.384029, -0.319197, -0.039878, -0.044641, 0.724655, 0.216484,
0.150640, -0.331547, 0.206536, -0.004652, 0.490856, -0.198366, 0.152124, 0.468156, -0.134577, 0.256361, 0.294297, -0.373873, 0.701997, -0.194765, -0.508605, 0.192436, -0.640477, 0.217051, 0.041669, -0.012953, 0.168915, 0.198361, 0.212466, -0.542202, 1.080374, -0.310474, -0.245290, 0.179676, 0.780709, 0.274288,
0.115215, -0.254195, 0.157933, 0.207205, -0.075659, -0.222260, -0.531388, 0.349799, 0.164620, 0.231019, 0.659195, 0.112567, 0.472581, -0.132355, -0.113287, 0.128475, 0.293087, 0.137659, -0.090108, 0.044001, -0.054460, 0.287038, 0.140993, -0.718444, 0.466635, 0.070702, -0.148095, -0.277412, 0.778086, 0.133809,
0.257827, -0.249700, -0.072081, 0.420705, -0.199694, -0.301859, -0.116308, 0.160467, -0.241871, -0.155530, 0.735081, 0.200908, 0.213495, 0.000653, 0.033265, 0.275350, 0.357716, -0.060045, 0.115145, 0.105435, -0.177944, -0.060784, 0.111065, -1.518583, -0.054280, -0.460250, -0.054599, -0.397825, 0.200596, -0.037410,
0.315400, -0.071984, -0.056315, 0.139665, 0.433328, 0.243018, 0.132502, -0.083970, -0.184762, -0.040912, 0.400700, 0.096328, 0.541504, -0.265685, -0.049010, 0.308305, 0.013982, 0.049101, 0.041489, 0.063650, -0.557243, -0.057231, 0.177923, -1.333311, -0.111736, -0.086042, 0.260114, -0.176738, 0.054939, 0.031132,
0.042894, 0.090809, -0.007544, -0.188172, 0.531658, 0.406757, -0.273228, -0.004050, 0.027311, 0.095820, 0.487558, 0.257441, 0.520489, -0.089101, -0.074005, 0.175980, 0.007460, 0.030336, 0.046774, 0.022394, -0.731855, 0.065240, 0.276810, -0.688901, -0.188244, -0.181275, 0.061682, -0.328226, 0.100100, 0.130412,
0.208539, -0.021792, 0.358615, -0.172063, 0.556405, 0.567303, -0.023341, -0.132313, -0.183075, -0.043856, 0.286694, 0.700553, 0.175228, -0.143433, -0.048402, 0.274599, 0.112497, 0.144396, 0.079714, -0.118613, -0.763288, -0.311354, 0.334012, -0.087861, -0.180673, -0.365696, -0.112547, -0.059656, 0.008624, 0.516716,
0.114169, -0.173207, 0.298411, -0.121072, 0.721245, 0.339852, 0.213166, 0.026050, -0.052697, 0.086929, 0.352264, 0.511698, 0.479798, -0.044257, -0.136351, 0.278284, -0.142244, 0.179965, -0.045937, -0.165416, -0.333658, -0.157342, 0.097200, 0.205043, 0.260159, -0.368826, 0.296557, 0.079225, -0.069122, 0.425418,
-0.003824, 0.141186, 0.298896, 0.178348, 0.880251, 0.212392, 0.013600, -0.090283, -0.100427, 0.031109, 0.375849, 0.097985, 0.164636, 0.295504, -0.121096, -0.081879, -0.012801, 0.407909, 0.126800, -0.110951, -0.244978, -0.104027, -0.063500, 0.267538, 0.370285, -0.376552, 0.010306, 0.042869, -0.138056, 0.370621,
0.312433, 0.154831, 0.689226, -0.011262, 1.062962, 0.350390, 0.206978, -0.173336, 0.008145, -0.224519, 0.217227, -0.779907, 0.117898, 0.177978, -0.386953, 0.353577, 0.218149, 0.481324, 0.117579, -0.204244, -0.261549, 0.015195, -0.203839, 0.595363, 0.427103, -0.436300, 0.165967, -0.015748, -0.169339, 0.341114,
0.283355, 0.051819, 1.310683, 0.419352, 0.575728, -0.313749, 0.630446, 0.476518, -0.573835, -0.142697, 0.102823, -1.005953, -0.118271, -0.068037, -0.387143, -0.153061, 0.028464, 0.293616, 0.147362, -0.198388, 0.090062, -0.135227, -0.175319, 0.369970, 0.259309, -0.454286, 0.224474, -0.282634, -0.216967, -0.019325,
-0.098436, 0.089223, 0.558153, 0.839439, 0.369825, -0.780620, 0.991741, 0.740501, -1.581428, -0.169507, 0.222587, -0.439077, -0.211621, -0.090736, 0.256115, -0.583065, -0.238046, -0.329419, 0.065194, -0.338739, 0.134575, -0.045721, -0.223294, 0.395259, -0.043704, -0.155290, 0.294617, -0.395252, -0.092925, 0.071924,
-0.278925, -0.098721, -0.512650, 0.511753, 0.030328, -0.447610, 0.693519, 0.735537, -0.673786, -0.456910, 0.069202, -0.263433, 0.062649, 0.029608, 0.311486, -0.320108, 0.081247, -0.417812, -0.350436, -0.497677, 0.338022, -0.304823, -0.167631, 0.130800, -0.409757, 0.564427, -0.180069, 0.139027, -0.242453, -0.023540,
-0.231708, -0.064752, -0.697017, 0.743323, -0.191807, -0.428740, 0.327179, 0.677756, 0.614194, -0.382049, -0.102553, -0.303667, 0.009650, 0.312412, 0.386160, -0.286483, -0.009869, -0.091356, -0.324892, -0.155277, 0.390210, -0.295617, 0.111717, -0.434475, -0.260287, 0.406522, -0.164311, -0.333981, -0.330032, 0.029390,
-0.138467, 0.024916, -0.318510, 0.653742, -0.076376, -0.284387, 0.535693, 0.123359, 0.973078, -0.096758, -0.101019, -0.405111, 0.057416, 0.433037, 0.281633, -0.019595, -0.256141, 0.224840, -0.174309, -0.200503, 0.226177, -0.154326, 0.165738, -0.312157, -0.128789, 0.363966, -0.243553, -0.142904, 0.243691, 0.257019,
-0.078308, 0.158813, -0.137677, 0.451039, 0.296558, -0.312509, 0.551779, 0.207795, 0.351257, -0.217381, 0.037834, -0.269756, -0.055248, 0.263456, 0.270467, 0.085689, -0.031227, 0.233433, 0.210153, -0.441380, -0.100582, -0.162662, 0.322224, -0.288806, 0.171041, 0.067581, -0.165772, -0.291337, 0.349696, 0.447638,
0.002379, 0.258607, -0.363421, 0.367707, 0.160160, -0.757629, 0.581185, 0.254540, 0.362973, -0.068982, 0.243987, -0.065309, -0.031700, 0.321412, 0.128503, 0.139939, -0.003349, 0.276108, -0.000956, -0.568419, 0.016615, -0.206500, 0.190605, -0.267426, 0.170838, 0.039572, -0.109319, 0.012163, 0.310603, 0.177630,
-0.142612, 0.087247, -0.101457, 0.734242, -0.166281, -0.395802, 0.705094, -0.035543, 0.296548, -0.113795, 0.117861, -0.314174, 0.079506, 0.101567, 0.368565, 0.214722, -0.274502, 0.285208, 0.037567, -0.851418, 0.054642, -0.154506, 0.249889, -0.341569, 0.220942, 0.000606, -0.035028, -0.318226, 0.353474, -0.047988,
-0.173318, 0.196733, -0.082352, 0.676884, -0.076212, 0.385352, 0.776371, 0.093151, 0.142126, -0.074737, -0.070884, -0.437677, 0.053430, 0.103669, 0.312875, 0.252798, -0.315032, 0.185527, 0.084385, -0.650706, 0.158903, -0.007686, -0.128639, -0.061103, -0.014018, -0.037335, 0.181904, -0.351847, 0.211566, 0.202098,
-0.234611, -0.204786, -0.298240, 0.681965, 0.127858, 1.320491, 1.130510, -0.317221, 0.312907, 0.043237, -0.004168, -0.223610, 0.265533, 0.062040, 0.120448, 0.030956, -0.109868, 0.200655, -0.161427, -0.241743, 0.223484, -0.077782, 0.240192, 0.026004, -0.175521, -0.024675, 0.284627, -0.471841, 0.392388, 0.448921,
-0.750684, -0.270773, -0.089767, 0.594271, 0.435115, 1.948272, 1.079141, -0.144033, 0.353147, 0.409919, -0.013493, -0.219428, -0.157817, 0.209660, 0.232041, 0.265764, -0.340760, -0.077995, -0.389291, -1.046097, -0.687870, 0.100949, 0.846083, 0.419817, -0.400996, -0.421995, 0.408535, -0.647111, 0.583710, 0.096887,
-0.906604, -0.330330, 0.308603, 0.403455, 0.692662, 1.902289, 1.198440, -0.303080, -0.940359, -0.380726, -0.251072, 0.007070, 0.140517, 0.227789, -0.449126, 0.295642, -0.288090, 0.390329, -0.742273, -1.167234, -1.929070, 0.251200, 1.540980, 1.029830, -0.151629, 0.243182, 0.370205, -0.684321, 0.074788, 0.399393,
-0.098831, 0.539464, 0.701214, -0.176087, -0.020437, 0.076306, 1.317458, 0.201399, -0.825240, -1.215959, -0.465947, -0.398464, 0.916920, 0.382733, -0.482422, 0.969687, 0.468364, 0.898871, -1.692201, -0.195822, -0.407733, -0.012679, 0.747011, 0.726697, 0.009278, 0.027074, -0.064690, 0.259396, -0.931942, 0.244035,
-0.300848, 0.557595, 0.816014, 0.518190, -0.150822, -0.346602, 0.603217, 0.263822, -1.057058, -0.861868, 0.072192, -0.707995, 1.414310, 0.273377, -0.280004, 0.655167, -0.539827, 0.215845, -1.158607, 0.593970, -0.420695, 0.978178, 0.429086, 0.508737, 0.733896, 0.189823, 0.895023, -0.024932, -0.846547, -0.069057,
0.107373, -0.455467, 0.314152, 0.345079, -0.442821, -0.413267, -0.097231, -0.035753, -0.226869, -0.414526, 0.431038, -0.563674, 0.169419, -0.066904, 0.649284, 0.055504, -0.132514, 0.141331, -0.411008, 0.512936, 0.458078, -0.087171, 0.221328, 0.383380, 0.314401, 0.156150, 0.010799, -0.169343, -0.617204, -0.261743,
0.316735, -0.183938, 0.174013, 0.075723, -0.050400, 0.005605, -0.015761, 0.278795, -0.056066, -0.185597, -0.021524, -0.066832, -0.015382, -0.035972, 0.214076, -0.266817, 0.242992, 0.094689, 0.080653, -0.299327, 0.104502, -0.064243, 0.094909, -0.141229, -0.031905, -0.038969, -0.262583, -0.048102, -0.260883, 0.022187,
-0.159291, -0.265271, 0.692420, 0.688924, -0.347824, 0.288420, 0.500373, 0.084064, -0.258320, -0.860348, -0.308076, -0.566884, -0.261012, 0.276351, 0.871521, -0.782570, -0.300279, 0.809221, 0.547863, -0.262966, 0.427663, -0.348466, 0.442553, -0.420204, -0.346142, -0.179639, -0.173738, -0.663062, 0.209817, 0.344487,
0.666216, -0.923575, 0.803350, 0.440629, 0.141872, -0.492116, 0.055424, 0.532739, -0.311897, -0.905819, -0.084102, -0.246973, 0.129377, -0.487065, 0.208920, -0.004220, 0.098345, 0.469219, 0.224611, 0.297687, 0.902897, -0.636580, 0.017373, 0.216498, 0.157718, 0.135077, -0.727899, -0.351612, -0.288079, 0.285885,
0.450049, -0.341802, 0.604065, 0.652746, 0.237096, -0.948262, 0.830934, 0.032463, -0.027976, 0.161586, 0.008188, -0.476773, 0.078581, 0.383411, -0.179604, 0.174252, 0.031876, 0.012076, -0.004187, 0.275562, 0.770866, 0.081109, 0.388429, -0.843099, 0.417188, 0.161728, -0.117849, -0.062209, 0.501155, -0.060058,
0.031531, -0.291060, 0.387986, 0.130858, 0.927557, -0.191923, 0.067809, 0.643578, 0.087198, 0.250802, 0.356782, -0.753661, 0.457805, -0.505857, 0.273102, 0.567987, -0.315433, 0.028273, -0.218968, 0.103827, 0.295532, 0.102955, 0.210874, -0.363204, 1.016867, -0.176585, -0.008279, -0.027491, -0.202160, -0.063007,
0.158915, -0.382948, -0.041809, -0.010883, 0.714558, -0.151301, -0.362343, 0.211777, 0.234224, 0.011759, 0.536125, 0.028706, 0.431533, -0.138961, -0.266280, 0.238884, -0.017898, -0.080582, 0.125375, 0.062113, 0.043897, 0.174830, -0.008112, -0.241014, 0.471534, -0.177126, 0.023965, 0.101553, 0.138225, 0.097361,
0.337756, -0.113217, -0.068404, -0.105552, 0.575001, 0.237895, -0.114426, 0.189108, -0.264130, -0.302713, 0.373056, 0.294852, 0.236764, -0.046096, -0.135660, 0.278178, 0.054346, -0.217874, 0.218978, 0.016253, -0.225115, -0.330851, 0.129325, -0.894844, -0.127556, -0.467276, 0.027747, -0.236869, 0.363496, 0.368347,
0.235025, -0.221385, -0.140796, -0.141499, 1.299228, 0.242369, 0.171123, 0.064327, -0.317759, -0.127245, 0.511805, 0.259781, 0.710290, -0.198291, 0.040562, 0.198112, 0.002713, 0.034877, 0.243366, 0.028169, -0.543536, -0.187073, -0.133134, -0.903867, -0.223055, -0.134506, 0.085159, -0.088424, 0.149689, 0.664100,
0.367183, 0.210390, 0.081318, -0.283681, 1.331801, 0.198411, -0.016879, -0.060520, -0.081777, -0.390781, 0.404972, 0.495083, 0.187094, -0.348008, -0.021992, 0.247737, 0.118041, -0.028929, 0.005976, -0.091510, -0.521096, -0.025291, 0.092793, -0.651065, 0.035207, -0.193811, -0.279235, -0.011195, -0.056414, 0.664616,
